74 100
python -0.020152155 0.306491 0.2370218 0.25472903 -0.015575801 0.14532372 0.1635896 -0.090459794 -0.3078928 0.072121516 0.06698748 -0.04095156 -0.30444485 -0.06806962 0.154611 -0.015585683 0.49752948 -0.057998814 0.08104204 -0.42288333 -0.015105018 0.288447 -0.37389636 -0.16744965 -0.19153063 -0.09495513 -0.12542808 0.09604858 0.10617234 0.42073137 0.39474446 -0.022318123 -0.2995276 -0.18826115 -0.034221508 -0.058777023 0.44171676 -0.20102085 0.11840116 -0.27348796 0.26431617 -0.010575171 -0.049243122 0.10667185 0.14882608 0.15164804 0.0141160665 0.14656594 0.11801721 -0.2335767 0.2466526 0.050128203 0.1489498 0.024558173 0.18287241 0.0700894 0.34554568 -0.03961904 0.00270457 0.12984394 0.07214459 -0.0079402905 -0.14867735 0.33438054 0.26480412 0.27938217 -0.093050994 0.21347192 -0.030812653 -0.08721632 -0.23478347 0.16079979 -0.19610126 0.15729032 0.28754717 0.14542003 -0.3445513 0.013614751 -0.2820563 -0.22396594 -0.3384832 -0.079741575 0.24984488 0.10606394 -0.24859175 0.3863442 0.0446697 0.015720874 0.21928956 -0.07383329 0.26814625 0.15048568 0.08651516 -0.27277192 -0.26881817 -0.03193332 0.03435701 -0.27381486 -0.085026816 0.6182268
sql -0.20686208 0.48190123 0.12539732 0.26802275 -0.044367153 0.16786723 0.11877276 0.072171785 -0.2700558 0.06502111 -0.024920404 -0.23047808 -0.36503294 -0.10325756 -0.019376962 0.0449422 0.36424595 -0.07364011 0.07977943 -0.36492875 -0.35048738 0.20452987 -0.21967123 -0.22991277 -0.12381548 -0.19680151 -7.37352e-05 0.2930374 -0.07497925 0.41572928 0.35773262 0.069800906 -0.23009984 -0.28937843 -0.040436555 -0.10015302 0.6287449 -0.24651445 0.1221271 -0.19718964 0.291459 -0.035126552 0.006667661 0.12064532 0.037444625 0.16675007 0.073973164 0.108576305 0.09084086 -0.0023434353 0.43472654 -0.075960524 0.09265361 -0.03609882 0.12499384 -0.15912996 0.24294034 0.29652494 -0.011241348 0.112169266 0.15451993 0.14519462 -0.15342791 0.2790081 0.2631623 0.4011419 -0.1080606 0.25001088 -0.0032639035 0.050115135 -0.25171784 0.2414856 -0.11491905 0.019751135 0.2607343 0.011204554 -0.5369818 -0.08194377 -0.41038874 -0.16854429 -0.3144545 0.16113915 0.28452066 0.08131774 -0.08240956 0.1459045 -0.031696003 -0.03543565 0.44284242 -0.018698815 0.22613193 0.08210172 0.12383594 -0.26663414 -0.25944299 -0.010597857 -0.11207006 -0.1182775 -0.14836767 0.5266271
numpy -0.019695735 0.22983699 0.37148473 0.36837855 0.24699171 0.123673804 0.15286174 -0.124138676 -0.3805088 0.1601077 0.0100898715 0.05618817 -0.5102383 -0.10075781 0.43088675 -0.012608369 0.5352953 -0.16101685 0.0077096988 -0.3909444 0.17887071 0.26578504 -0.7257816 -0.08123813 -0.24457863 -0.15902247 -0.1953881 -0.16030404 0.05840359 0.15952565 0.3930625 -0.33040172 -0.38892415 -0.27712834 -0.18191628 -0.0027889379 0.33941683 -0.26555434 -0.026865771 -0.40564612 0.049953658 0.2414908 -0.02714015 0.5028377 0.035846755 0.19977704 -0.40696803 0.4439748 0.26710528 -0.1625909 0.11078261 -0.10138774 0.45978722 0.15242958 0.17804387 -0.08823332 0.3786475 -0.21170059 0.00084589666 -0.15701073 -0.034458734 -0.07047761 -0.42121488 0.015314897 0.2503554 0.11460139 0.12281672 -0.03459144 -0.08583288 -0.0048006224 -0.359233 0.07891264 -0.03692035 0.37355477 0.32762754 0.16138221 -0.2761071 0.09555835 -0.24494067 -0.1939222 -0.17198488 -0.11099013 0.0055130785 0.1631901 -0.464469 0.3938457 -0.094514675 0.2522574 0.18243672 0.18840905 0.45491657 -0.03629798 -0.26499644 -0.3429382 -0.05995568 -0.13756998 -0.013813743 -0.2781254 0.017467346 0.6149506
pandas -0.03612581 0.2360915 0.3867381 0.35423127 0.29795235 0.091967456 0.15618677 -0.12701888 -0.40238944 0.16751084 0.033285573 0.051704507 -0.5522824 -0.08149023 0.43007207 -0.03885027 0.575662 -0.1631095 0.03509602 -0.37616906 0.19307764 0.28142422 -0.77013266 -0.07417572 -0.271497 -0.12933463 -0.21597333 -0.17709182 0.07408299 0.16510472 0.4021208 -0.32693723 -0.41235852 -0.27449468 -0.19331142 -0.020849908 0.3290533 -0.2637739 0.0004315039 -0.4642034 0.07227589 0.23069829 -0.05030808 0.5206853 0.035949472 0.21451609 -0.4134875 0.48350012 0.29064605 -0.1787508 0.09585445 -0.13901158 0.46729594 0.12737314 0.18101218 -0.10294046 0.40058017 -0.21880883 -0.02692826 -0.1465919 -0.061322343 -0.060628526 -0.44244826 0.00088604126 0.27262 0.107669406 0.14228684 -0.05020377 -0.06750049 0.0005087374 -0.34570792 0.07790263 -0.013910482 0.39416176 0.35271704 0.16465701 -0.2902998 0.13037202 -0.22196461 -0.203361 -0.17678334 -0.12987812 -0.028006678 0.17003806 -0.50316817 0.39703527 -0.076838866 0.29730263 0.17087987 0.17884041 0.46192735 -0.06287729 -0.2717945 -0.32782823 -0.049446445 -0.14837326 0.0022767268 -0.29175285 0.015459902 0.61519706
docker 0.16869625 0.11442474 -0.055883847 0.18435363 0.47538316 -0.028360134 0.41133565 -0.016703095 -0.04735315 -0.12338946 0.092875265 -0.30132556 -0.016770354 -0.34023616 -0.3277698 0.08564097 0.29708174 0.09943638 0.07996023 -0.25913274 0.10297295 0.17355615 -0.06747349 -0.101025805 -0.002576072 0.050430957 0.2851007 0.0536719 -0.015966527 0.39572912 -0.22756378 -0.027395273 -0.28826737 -0.2130836 -0.07989674 -0.08925955 0.1439199 -0.2764318 0.45402226 0.0882811 -0.022026932 -0.2150395 -0.05137325 -0.14170456 0.040514477 0.19062118 -0.004341086 0.31747127 -0.0820941 0.0080718575 0.09899556 0.11312368 0.25027072 -0.047338247 -0.22320245 0.3247316 0.042316526 -0.025535977 0.15732291 -0.2029472 0.59539527 -0.06397959 0.014572096 0.3110335 0.05391484 0.44207257 -0.19695407 0.27858946 -0.348614 -0.15468095 -0.08894459 0.17787023 -0.17413469 0.20861368 0.01906783 0.091668755 -0.40415764 -0.24301298 -0.74499154 -0.1336123 0.019739097 -0.10249838 0.5731775 0.22002546 -0.066967376 -0.14683282 -0.032312863 0.21405916 0.15511446 0.14245999 0.10389948 0.20422718 0.4002204 -0.015325161 0.07275841 0.3432291 -0.23822938 -0.42412958 -0.062249597 0.12800325
linux 0.24283285 0.007221369 -0.07422959 -0.13341527 0.32911804 -0.28490916 0.56782305 -0.016778162 -0.013601378 -0.0030871783 -0.055831067 -0.08714875 0.10742712 -0.3233872 -0.25097355 0.19953969 0.41535673 -0.08548559 -0.28532654 -0.24472089 -0.09528394 -0.054488104 -0.34187096 0.08479301 -0.12491249 -0.30203205 0.29912955 -0.007906416 -0.044488188 0.19134636 0.026043264 -0.48298183 -0.044171765 -0.27182585 -0.27765217 0.00013327984 0.09658408 0.14106186 0.15741271 0.11386441 -0.5022523 -0.12184564 0.16851942 -0.09384718 -0.20442411 -0.21288265 -0.38265178 0.20351915 -0.13252826 0.15305914 -0.13824914 0.034895606 0.6707215 0.1695976 -0.124562494 0.27081543 0.012381868 0.19194852 0.28148714 -0.41787425 0.61361724 0.02033154 0.3167555 -0.10251221 0.122005664 0.5812124 -0.25167257 0.11685166 -0.20622899 -0.08213244 -0.2824743 0.1405329 -0.2823404 -0.045498557 -0.15403658 -0.12247303 -0.21590608 0.06534653 -0.34124815 0.06685499 0.28416035 0.06006552 0.5495348 0.4937765 -0.03804698 -0.18463777 -0.08702261 0.45063952 0.09647773 0.41976038 0.5005253 0.6849229 0.0027943724 0.11521904 0.19305508 0.37389198 0.05455869 -0.24590287 -0.015938576 -0.14009145
excel -0.24383013 0.30492562 0.24242751 0.3938385 0.30009604 0.20530969 0.10353622 -0.05014278 -0.37127373 0.22033705 -0.055663105 -0.12428603 -0.69342774 -0.29650128 0.2866033 0.0673423 0.46791726 -0.22304606 -0.00028332762 -0.37392086 -0.124624 0.17156991 -0.5639193 -0.19190472 -0.15810545 -0.32296494 -0.07643775 -0.011431157 -0.08933225 0.16563912 0.4177273 -0.29921687 -0.3960096 -0.38490537 -0.14970075 -0.09694911 0.5529422 -0.38546142 0.05209119 -0.41870132 0.1163236 0.2870039 0.020217896 0.6397679 -0.053251687 0.14734703 -0.4854906 0.4758686 0.1794297 0.05143708 0.23278077 -0.20266768 0.4089274 0.11577363 0.15579136 -0.39576438 0.2595733 0.030187486 -0.082738966 -0.27371004 0.0697548 0.053725954 -0.4738731 -0.06342732 0.147186 0.26132548 0.112142175 -0.08953662 -0.051344838 0.10945277 -0.4861543 0.124600045 0.0813862 0.26976544 0.33499476 0.030374965 -0.49218333 -0.042028613 -0.44269654 -0.12373317 -0.19475465 0.13741323 -0.07868918 0.11675864 -0.42356232 0.276659 -0.14498898 0.26381576 0.41636345 0.3016198 0.47723234 -0.1981136 -0.30424783 -0.35429874 0.07227782 -0.12256028 -0.19550596 -0.17144108 -0.010869973 0.56274796
java -0.26813844 0.70803493 0.32647535 0.06492936 -0.24107613 -0.38251895 0.16808103 0.37903845 -0.34377342 -0.021284586 -0.112883136 0.0718733 -0.19847979 0.37626323 -0.0937606 -0.0997071 0.109668605 0.015952636 0.21413206 -0.16209266 -0.4987526 -0.05446575 -0.621481 -0.0052443175 -0.46127367 -0.2467795 0.07604138 0.13238862 0.15478991 0.03642049 0.23262373 -0.08462838 0.14350046 -0.37048414 -0.27522528 -0.023862215 0.33485493 0.008213367 -0.051683404 -0.47165048 0.049345363 0.019351356 -0.05757849 0.18063232 -0.09743163 0.2029645 0.2168331 -0.013128814 0.50004935 0.0070723947 0.51020604 -0.41847354 0.10642471 -0.0711468 0.04791147 -0.10083289 0.38062036 0.6343963 -0.17624608 0.37435913 -0.39357576 0.38479415 -0.016330248 -0.19429716 0.7349987 0.19283095 0.4338805 0.26452017 -0.07785165 0.22514914 -0.16739243 0.32425833 0.07002883 -0.0735905 0.27765122 -0.009240349 -0.37210903 -0.10465369 0.13255917 -0.39795572 0.047171928 0.11594935 0.32962474 0.37654322 0.10884516 -0.16927196 0.04245712 -0.18302289 0.33816603 0.15671782 0.11347571 0.41799945 -0.04331428 0.022504594 -0.34099415 -0.008160362 -0.027406376 -0.20966004 -0.054263245 0.24489246
aws 0.2607645 0.054961164 0.0015611473 0.12159611 0.54030764 -0.27764148 0.48529935 0.10903468 0.0075473688 -0.10571478 -0.00406823 -0.14871146 0.08835601 -0.5218698 -0.38463497 0.15979604 0.2797602 0.068474844 0.10024207 -0.23383722 0.23161331 -0.0038159469 -0.18526578 -0.026643915 -0.011793264 -0.16112635 0.43878442 -0.10674412 0.25602835 0.29263845 -0.31305617 -0.24699728 -0.18261634 -0.3115216 -0.11922403 -0.01947877 -0.06475539 -0.3078105 0.5881332 -0.016501652 -0.2855286 -0.11147404 -0.050920065 -0.039987396 -0.04386865 0.03330819 -0.14815603 0.3722684 -0.041839667 0.027498145 0.004680794 0.042126965 0.4474848 0.1217047 -0.34222612 0.40939423 0.027178254 0.049582843 0.0774798 -0.38057417 0.48564678 -0.11153899 0.1389863 0.005332094 0.07360034 0.44732624 0.045016397 0.17004476 -0.5531072 -0.14034855 -0.22999682 0.12281624 -0.14443383 0.2856136 -0.065103814 0.13119407 -0.38886794 -0.42829236 -0.69728374 -0.24807906 0.25871855 -0.13773613 0.5870678 0.48365918 -0.14160046 -0.16908424 0.015923204 0.19259103 0.14935473 0.5107983 0.13022609 0.3872357 0.26120242 0.12208094 0.29801998 0.4975748 -0.2900355 -0.6518992 0.06434851 -0.020024762
matplotlib -0.2486934 0.2919968 0.25513655 0.38407764 0.30267668 0.16041704 0.08826929 -0.041863162 -0.36401913 0.23148043 -0.05034985 -0.081693746 -0.6837329 -0.278218 0.2822098 0.043673314 0.45920584 -0.21586533 0.05120422 -0.3551767 -0.110221416 0.14154264 -0.59878266 -0.17316651 -0.17114641 -0.3362897 -0.07526251 -0.04769621 -0.031703703 0.15263161 0.41000584 -0.3047834 -0.38068166 -0.3878131 -0.15870544 -0.11840301 0.5037721 -0.38290218 0.08323377 -0.4934138 0.11276106 0.3118142 0.0051763025 0.65818155 -0.048173632 0.11788495 -0.48136982 0.47325057 0.22073014 0.032793112 0.21941516 -0.22755286 0.40665892 0.12186485 0.14706765 -0.38995427 0.26717505 0.02378961 -0.12755445 -0.25975186 0.006573488 0.043493822 -0.46024212 -0.09294241 0.15545991 0.24058145 0.15927066 -0.114399366 -0.045934074 0.104190364 -0.4890284 0.09970439 0.11310347 0.26089615 0.33149967 0.048455544 -0.47633132 -0.06200052 -0.3767991 -0.15235648 -0.17644742 0.106893085 -0.12205782 0.14446978 -0.46296877 0.28698325 -0.098770946 0.24375972 0.3809468 0.33961403 0.45027417 -0.1956441 -0.3017448 -0.2999966 0.11621843 -0.11463872 -0.18049566 -0.20438358 0.0080661215 0.5349347
kubernetes 0.29344884 0.05506728 0.021683065 0.13428861 0.5794907 -0.3063278 0.51928765 0.12998143 0.023999495 -0.11353263 -0.018011896 -0.1431031 0.11360051 -0.5848892 -0.42827523 0.16328722 0.28187773 0.06951156 0.120788954 -0.26315716 0.26554054 -0.01886768 -0.20860454 -0.032810334 -0.00796282 -0.19331542 0.48140696 -0.12146887 0.31109118 0.3103166 -0.34907025 -0.29159364 -0.1778835 -0.34745714 -0.12464958 -0.004090052 -0.10275188 -0.33103663 0.6261128 -0.019379294 -0.3289119 -0.10924129 -0.052226547 -0.04714817 -0.035966817 0.022857394 -0.16752522 0.38424203 -0.045576595 0.03099058 0.00042355023 0.043608535 0.4832079 0.15254715 -0.38318992 0.46274757 0.030818688 0.071596295 0.087730706 -0.41795745 0.50677586 -0.10782582 0.16381858 -0.017447382 0.086254336 0.49941206 0.074950635 0.18874224 -0.63077956 -0.15494174 -0.24607146 0.13059856 -0.167858 0.3037264 -0.051873952 0.16418213 -0.42031723 -0.49029908 -0.7619606 -0.28083417 0.2919416 -0.1439845 0.64858264 0.5333111 -0.15180373 -0.17473496 0.023506476 0.20777625 0.18101294 0.5773452 0.13601613 0.4487832 0.27082092 0.1316016 0.32840297 0.5454368 -0.3116765 -0.71058875 0.074881926 -0.016300766
unit testing -0.16148573 0.8578972 0.39810514 0.3088904 -0.45179388 -0.10299665 0.16030976 0.37350956 -0.32295832 -0.046168517 -0.18340033 -0.014251019 -0.22551093 0.08584656 0.017982889 0.06743794 0.21875417 -0.11216699 0.14173011 -0.5130383 -0.5406984 0.10404078 -0.48252136 -0.21863982 -0.3635204 -0.4601581 0.07669329 0.32732946 0.1459826 0.27260214 0.37526587 -0.06504869 0.071382016 -0.4556163 -0.12658781 0.057102446 0.6560053 -0.1797614 -0.051687468 -0.3253939 0.17439368 0.02245258 0.05493895 0.16604945 0.029475842 0.18089877 0.24214353 -0.07322152 0.28639886 -0.09260777 0.75675434 -0.13625158 0.16417454 0.115440935 0.22168638 -0.0146916965 0.45456988 0.65065324 -0.065622345 0.26279756 -0.14286238 0.31285888 0.04699612 0.10021852 0.6816357 0.41707373 0.21644703 0.42216182 -0.19545874 0.12106652 -0.43558884 0.39767876 -0.2110845 -0.059345677 0.40485263 0.1468924 -0.54942435 -0.30662218 -0.24736542 -0.43511054 -0.2345924 0.27886316 0.5566465 0.37315148 0.06281425 0.18915261 0.012436793 -0.31644583 0.5687229 0.2184302 0.23667806 0.52248967 -0.0530902 -0.25811365 -0.45431945 -0.0029808097 -0.05458152 -0.2557296 -0.11459996 0.63599414
json -0.15603381 0.78079545 0.37884215 0.30601904 -0.40706947 -0.07710762 0.13635708 0.3404993 -0.30188388 -0.05521022 -0.1488563 -0.01617047 -0.20747326 0.06714589 -0.00035128268 0.0413007 0.20693155 -0.07178127 0.17624196 -0.4772007 -0.4562477 0.102440685 -0.42119187 -0.21561466 -0.31737223 -0.40199474 0.07147131 0.2984568 0.1771432 0.28332904 0.33863634 -0.020665616 0.039068833 -0.40336627 -0.083074875 0.050582882 0.5758548 -0.20865574 -0.0054815738 -0.32262218 0.20876399 0.025982076 0.024092793 0.14026438 0.06255055 0.18334974 0.26316884 -0.06701067 0.2848169 -0.1194494 0.7032712 -0.11275994 0.103830725 0.094624765 0.1869089 0.01260035 0.42210338 0.5664679 -0.07800738 0.27018234 -0.13863192 0.2666476 0.029154032 0.12550636 0.63096213 0.35636908 0.22029227 0.39081115 -0.21784467 0.0934062 -0.3851861 0.35443622 -0.19257669 -0.022020865 0.3771065 0.15175667 -0.51508486 -0.32521376 -0.2580086 -0.43151885 -0.24328189 0.21935755 0.5093311 0.32122853 0.04307994 0.1945519 0.02910527 -0.32852542 0.505463 0.16921636 0.18023753 0.44554397 -0.0060243635 -0.24166618 -0.43100432 0.005655302 -0.08040065 -0.28204584 -0.10270142 0.62270445
git -0.1644645 0.8753427 0.38105258 0.32371923 -0.446344 -0.08696506 0.15441345 0.37140936 -0.31881836 -0.06315061 -0.18001893 -0.025664698 -0.22915275 0.07659482 0.0297721 0.080135405 0.206252 -0.11216985 0.15456371 -0.5170507 -0.5281011 0.124961 -0.46898824 -0.22162533 -0.35584694 -0.44071344 0.07952432 0.3369444 0.122627355 0.28558442 0.36056772 -0.049064014 0.064069554 -0.45137054 -0.118498966 0.05128505 0.6575918 -0.18740907 -0.04444032 -0.3133103 0.18985693 0.025880838 0.04739316 0.16245325 0.045687668 0.20710303 0.25616804 -0.06941543 0.2703226 -0.10280531 0.76409835 -0.123296656 0.16077963 0.111306675 0.22365344 -0.012987937 0.46408156 0.6523544 -0.057066567 0.2541124 -0.11722978 0.3115068 0.040767252 0.13458973 0.67470264 0.42341927 0.20273633 0.44549227 -0.20244424 0.11484342 -0.43247876 0.40082666 -0.21337593 -0.05096511 0.41012672 0.1553537 -0.552085 -0.31577253 -0.26972887 -0.43075952 -0.24158113 0.28604525 0.5659617 0.35481074 0.07147058 0.1873564 0.0058279647 -0.32052106 0.5803267 0.2009267 0.22551885 0.51142305 -0.04394435 -0.26470083 -0.45582697 -0.017651102 -0.062555335 -0.2439843 -0.12543437 0.6568324
rest api -0.16868895 0.8566841 0.357745 0.2810291 -0.4398569 -0.10774464 0.16421019 0.379579 -0.3117512 -0.060048196 -0.16890562 -0.03887082 -0.20077837 0.1185937 -0.010121679 0.05426805 0.19022824 -0.10210992 0.12377833 -0.48061252 -0.5668644 0.11516956 -0.4633484 -0.20036997 -0.36727193 -0.41564375 0.07955204 0.34188744 0.103065245 0.26218876 0.35578254 -0.045039184 0.074185975 -0.43454754 -0.13525338 0.059119683 0.6423325 -0.14623949 -0.08588423 -0.2847169 0.17187078 0.00090241025 0.056259044 0.12153211 0.028224275 0.20009376 0.26339236 -0.08818645 0.2756777 -0.07535588 0.73078537 -0.13231565 0.14862664 0.085902885 0.20646541 -0.028593887 0.43687865 0.6636846 -0.039915975 0.28275833 -0.10610448 0.33792928 0.047622595 0.10477419 0.6880794 0.4061507 0.19290656 0.4317411 -0.17502415 0.13352966 -0.39586708 0.39028308 -0.21351685 -0.0774403 0.37729225 0.11034223 -0.5441072 -0.26617 -0.23376982 -0.3914902 -0.20974073 0.2800214 0.5605691 0.3537906 0.10473804 0.13335983 -0.011430769 -0.29979187 0.54876333 0.16623928 0.23467706 0.50680816 -0.03241637 -0.23931941 -0.4795654 -0.017698947 -0.054384384 -0.21263188 -0.13018703 0.59688723
github -0.15966856 0.8653445 0.37585592 0.30828288 -0.44380277 -0.100266725 0.16278689 0.38625473 -0.3176637 -0.06607916 -0.17801484 -0.027563242 -0.21190973 0.08169017 0.0060489643 0.0659192 0.19365926 -0.09884295 0.14319302 -0.49781117 -0.53586626 0.11576906 -0.4615681 -0.21610227 -0.35219163 -0.44899392 0.09195676 0.34071222 0.12764698 0.2754447 0.35122722 -0.05481789 0.06933302 -0.4548243 -0.12549725 0.059224688 0.64885694 -0.18255892 -0.049465757 -0.30146894 0.16951135 0.021774733 0.05491423 0.15887074 0.03659457 0.19439967 0.25353906 -0.068980224 0.27511123 -0.09049703 0.748493 -0.12792768 0.16187821 0.1104928 0.20692964 -0.02060784 0.44494432 0.648489 -0.055783994 0.2532022 -0.11677889 0.322104 0.054508116 0.10773802 0.6675169 0.41169548 0.2057085 0.42874888 -0.20416866 0.12232581 -0.4259909 0.39545727 -0.20931287 -0.059960686 0.39851162 0.14395443 -0.5537786 -0.31980926 -0.27289084 -0.43034944 -0.2264992 0.28430966 0.5617244 0.36526194 0.067871846 0.16876371 -0.0039353753 -0.32344317 0.562508 0.2104628 0.22959915 0.50730324 -0.0447496 -0.2540063 -0.45378414 -0.002669823 -0.073458984 -0.24452518 -0.115882196 0.62350637
keras 0.25146303 0.2028887 0.4921692 0.30937368 0.3228759 -0.02789679 0.32015666 -0.143927 -0.4021807 0.028840233 0.11145237 0.14401823 -0.31540778 0.09030376 0.46312863 -0.08774112 0.6194475 -0.051980674 0.0012159583 -0.40588614 0.51494974 0.43285668 -0.93983626 0.057822186 -0.38046485 0.093025714 -0.24245802 -0.32262394 0.19141215 0.16425492 0.2955862 -0.36716762 -0.4203597 -0.176578 -0.28507116 0.15799429 0.11413018 -0.13030024 -0.10136439 -0.33111623 -0.028451594 0.09571765 -0.096648246 0.31318 0.13061966 0.36585504 -0.2970317 0.49675992 0.33833802 -0.3741712 -0.043060157 0.0019040386 0.568655 0.16157924 0.16631563 0.28106734 0.5331599 -0.43861437 0.1694248 -0.072275124 -0.03187046 -0.12825356 -0.39902034 0.0671097 0.4658842 -0.021141993 0.12666968 0.0777655 -0.20189103 -0.10529566 -0.19227292 0.084675536 -0.20298114 0.5540847 0.31961015 0.2716932 -0.116191134 0.26499224 -0.16700032 -0.26111692 -0.0785532 -0.38070074 0.204524 0.23463139 -0.44737053 0.3867802 -0.09727083 0.33383596 -0.065860376 0.051517177 0.49436012 0.15082994 -0.21151778 -0.30067673 -0.22558813 -0.13109818 0.085268684 -0.40113276 0.031022927 0.6733282
pytorch 0.2642833 0.22324643 0.50867426 0.2980345 0.30670023 -0.04241919 0.33826673 -0.14076869 -0.4233386 0.017161654 0.10818323 0.16345887 -0.29774374 0.091395065 0.4559483 -0.1009989 0.62736887 -0.04471028 0.016401626 -0.399934 0.53988975 0.42857203 -0.9594875 0.062455878 -0.39380765 0.08527158 -0.24991848 -0.3285247 0.23143293 0.16793884 0.3006607 -0.36995944 -0.41958117 -0.18643714 -0.28893316 0.18158123 0.0997211 -0.119589485 -0.0891814 -0.32569543 -0.048926655 0.08853907 -0.10127566 0.30093694 0.1550039 0.37631437 -0.2752623 0.49596795 0.3465401 -0.38306165 -0.047889933 0.0007214855 0.58149904 0.15639766 0.16919352 0.31336838 0.54361844 -0.438756 0.17214566 -0.04404018 -0.056259472 -0.13385496 -0.38849875 0.067517936 0.49050352 -0.028391061 0.14412346 0.089720786 -0.22475925 -0.120143995 -0.19637713 0.083384 -0.2237689 0.5650801 0.32256672 0.2868049 -0.10800216 0.27348557 -0.1604661 -0.2879017 -0.07049124 -0.40927368 0.23841038 0.26054534 -0.43609145 0.3917937 -0.100475185 0.315981 -0.06650701 0.043145183 0.49621257 0.1801274 -0.19571006 -0.3005218 -0.25413266 -0.13016403 0.09100456 -0.44213748 0.036961988 0.6692181
tensorflow 0.25253573 0.19416714 0.5150877 0.28061754 0.342228 -0.0648107 0.3254806 -0.15037082 -0.41533676 0.02799834 0.11041787 0.17594032 -0.30562058 0.11254087 0.4771966 -0.109033614 0.62381524 -0.04277553 0.0016560918 -0.37781906 0.5412572 0.41477853 -0.9986264 0.08044032 -0.4090489 0.08927767 -0.25647375 -0.3654927 0.21408053 0.1253653 0.29062444 -0.41006815 -0.41275308 -0.18055779 -0.31335735 0.1715965 0.074822225 -0.10079272 -0.11680835 -0.3479 -0.0833354 0.10894209 -0.094664775 0.3212526 0.12208029 0.36504874 -0.32308275 0.5209647 0.36280686 -0.36771995 -0.07965393 -0.023681957 0.6010617 0.15433115 0.15704203 0.29670212 0.5310437 -0.43837515 0.17705841 -0.06220359 -0.07918943 -0.13825159 -0.4059948 0.013785691 0.4899438 -0.04608865 0.15561536 0.061523274 -0.20557173 -0.10793249 -0.18696825 0.071754925 -0.19419783 0.5587438 0.30851582 0.26469502 -0.0804226 0.29620305 -0.12923048 -0.26622704 -0.04018594 -0.4005989 0.20172869 0.26316744 -0.4555906 0.36387148 -0.102389395 0.35416207 -0.086821005 0.064550675 0.5016102 0.1687035 -0.22912025 -0.2789003 -0.22048515 -0.13344954 0.10583258 -0.42926168 0.04602568 0.63840455
burpsuite 0.17454022 0.09240516 -0.07569171 -0.24868551 0.10085758 -0.295435 0.6838093 0.04433425 -0.17560399 0.14740428 -0.11994956 -0.044905998 -0.04425909 -0.24331762 -0.17835118 0.19141687 0.52462417 -0.16734661 -0.5639603 -0.34292537 -0.34374663 -0.028048644 -0.5798432 0.19945313 -0.32276574 -0.46521384 0.22594039 0.05237386 -0.053586435 0.13668455 0.49309838 -0.62256813 -0.117648646 -0.2646111 -0.4462522 0.20804702 0.2852904 0.29344317 -0.2682165 0.09569427 -0.48550153 -0.055873986 0.2983073 -0.025267355 -0.23594473 -0.23317121 -0.5054738 0.10998498 -0.041216325 0.13663192 -0.18656409 0.07223604 0.79557675 0.29446548 -0.06976864 0.11402015 0.109818175 0.2782149 0.33679768 -0.30030677 0.59717906 0.12236313 0.21481043 -0.35571253 0.31224477 0.4664347 -0.21429403 0.10933176 -0.19288768 -0.028068135 -0.45713553 0.12667046 -0.4158927 -0.042367026 -0.19370194 -0.40729934 -0.29587695 0.4011221 -0.16709162 0.25973135 0.341291 0.10461235 0.4552729 0.57107264 -0.027410485 -0.093977645 -0.19345137 0.43992388 -0.026023857 0.3034219 0.9399123 0.73805773 -0.22058755 0.011697745 -0.048510484 0.25354353 -0.04263635 -0.049565025 -0.035989087 0.07297287
tableau -0.2041894 0.35954452 0.2604944 0.4320848 0.20444834 0.21569914 0.07225366 0.0062450846 -0.3488291 0.16316776 -0.06257348 -0.13895582 -0.6301243 -0.21174607 0.285075 0.059780527 0.36795118 -0.20252958 0.029687675 -0.35162193 -0.09532324 0.20406067 -0.48781642 -0.18773566 -0.12600458 -0.26771834 -0.07763219 0.025149928 -0.09974208 0.16885276 0.3530301 -0.22075737 -0.3523694 -0.36379614 -0.12007166 -0.042859707 0.53485924 -0.3716778 0.023587221 -0.32118875 0.1302886 0.23728457 0.008585361 0.55316687 -0.01769288 0.19523384 -0.3546993 0.4232994 0.1540493 0.03638546 0.29034552 -0.1729775 0.35684502 0.11310885 0.16985627 -0.34035054 0.26551312 0.031045217 -0.02773692 -0.21907148 0.047599327 0.05320329 -0.46592712 -0.022263058 0.18343726 0.21914285 0.09600335 -0.026934246 -0.06918007 0.097751625 -0.41951653 0.12301381 0.02460556 0.2539111 0.34674805 0.10420698 -0.45775512 -0.060450602 -0.4465101 -0.15267585 -0.20516402 0.14496808 -0.021326486 0.069886066 -0.34702167 0.24209118 -0.14710425 0.17029251 0.4374149 0.21772604 0.39080587 -0.20933743 -0.26483753 -0.35404223 -0.021496153 -0.14022705 -0.19320457 -0.14941706 -0.028813919 0.5745788
wireshark 0.15364903 0.12503071 -0.075018354 -0.23196071 0.10027553 -0.29761428 0.7036305 0.035798155 -0.1932867 0.1472753 -0.11921989 -0.051902518 -0.05466464 -0.22181359 -0.1892872 0.1766048 0.54869217 -0.17612185 -0.54984385 -0.35585582 -0.35901046 -0.01655563 -0.6122502 0.18893085 -0.33660522 -0.4633452 0.22377945 0.07545302 -0.067452766 0.16120285 0.49853712 -0.62552345 -0.13019784 -0.28367838 -0.4501888 0.19824578 0.32037896 0.29477614 -0.26180848 0.07140355 -0.47282952 -0.077299275 0.29302377 -0.018838646 -0.24347451 -0.21230295 -0.49094334 0.11339982 -0.021586621 0.13800052 -0.15239672 0.055722453 0.79423267 0.26279488 -0.06420202 0.107758574 0.12280033 0.31044742 0.33954826 -0.28125218 0.5995735 0.13572577 0.21386911 -0.334204 0.3453429 0.48936954 -0.20391428 0.13988245 -0.1993547 -0.027374601 -0.45868397 0.15327513 -0.42430425 -0.041535098 -0.16910034 -0.39585948 -0.32531458 0.40087065 -0.18898003 0.24295552 0.33204466 0.106164426 0.49250504 0.57602507 -0.019299535 -0.096750244 -0.17818272 0.44655383 -0.0057180775 0.29925805 0.94932055 0.74808097 -0.20143142 -0.00054988114 -0.06264123 0.25496107 -0.040491395 -0.05570798 -0.044079576 0.08994456
xgboost 0.23944059 0.22559512 0.5011075 0.29361826 0.30517387 -0.038556978 0.3220311 -0.1293557 -0.40395495 0.025488947 0.095132254 0.15124524 -0.30203614 0.11400639 0.45295507 -0.09931557 0.59442854 -0.03958403 -0.0015566126 -0.39777893 0.4876104 0.426839 -0.9554909 0.063368104 -0.40236217 0.08852881 -0.247857 -0.31581497 0.18928856 0.1402449 0.3021135 -0.3731271 -0.403254 -0.17225848 -0.30367637 0.18445957 0.11183021 -0.10869839 -0.14213915 -0.31775478 -0.037652906 0.08889392 -0.082004435 0.30018154 0.12470908 0.39451134 -0.28759545 0.4931979 0.35241616 -0.35642034 -0.04425265 -0.0074678143 0.5678648 0.14786334 0.15713766 0.27584004 0.5234811 -0.40171462 0.18505202 -0.040767256 -0.060803734 -0.11260078 -0.4004812 0.04671347 0.5002317 -0.032575287 0.1320782 0.08628626 -0.2078967 -0.10071106 -0.1748238 0.08667102 -0.20405604 0.54913145 0.30260295 0.23886621 -0.11371135 0.29212743 -0.15561652 -0.24262011 -0.049714644 -0.37332833 0.22330083 0.24196708 -0.4165423 0.355222 -0.109260105 0.33397123 -0.064800784 0.043574456 0.503663 0.16315243 -0.21264067 -0.3022663 -0.25566873 -0.14911254 0.08530894 -0.3863149 0.030441249 0.6536296
scikit-learn 0.23367411 0.20214804 0.5079416 0.29565006 0.32724756 -0.04185263 0.31949645 -0.15195206 -0.42147002 0.0407892 0.106498055 0.15984724 -0.32629445 0.08815211 0.46952176 -0.10012495 0.62764287 -0.050470784 0.0038405084 -0.39553794 0.50413686 0.41451824 -0.9690355 0.059133485 -0.40010408 0.074945115 -0.25184047 -0.34113148 0.20695454 0.149549 0.30852708 -0.39346978 -0.42122912 -0.18899985 -0.3003203 0.15948845 0.110376045 -0.12302483 -0.10147403 -0.34999716 -0.053791545 0.11059169 -0.091411754 0.32872945 0.12646264 0.35693485 -0.32095948 0.5123214 0.35260794 -0.36240515 -0.053049963 -0.02162179 0.5859363 0.1555396 0.16474605 0.27005142 0.523704 -0.42766592 0.1664707 -0.06740357 -0.06536326 -0.12849627 -0.409573 0.037511736 0.47603697 -0.023202969 0.15191554 0.063591726 -0.20384206 -0.11099016 -0.20573947 0.08185773 -0.1923825 0.5517834 0.31565204 0.26321465 -0.10418513 0.28736135 -0.15246965 -0.26581916 -0.06483632 -0.38787988 0.20117979 0.24650039 -0.45589945 0.37854177 -0.09980756 0.34031072 -0.05867546 0.062180374 0.5050736 0.15956764 -0.21824327 -0.3022646 -0.22416069 -0.13338727 0.097909026 -0.42635438 0.038170613 0.65365916
siem 0.15510103 0.097003266 -0.06530046 -0.22120692 0.097106464 -0.2622989 0.6504651 0.039794125 -0.17832832 0.12934233 -0.11751915 -0.04418074 -0.048734978 -0.22211744 -0.15581554 0.18078932 0.49093625 -0.16217045 -0.5347705 -0.32811964 -0.31961697 -0.023953406 -0.56257176 0.18793674 -0.3039855 -0.43658838 0.1997025 0.051087353 -0.049628817 0.12414663 0.45966205 -0.5843521 -0.115949005 -0.25210136 -0.42306632 0.20116471 0.27112988 0.2663676 -0.2636983 0.08413791 -0.46147445 -0.05263513 0.28318712 -0.0049480028 -0.21023698 -0.20910683 -0.4792588 0.11353652 -0.025357334 0.12782574 -0.16914867 0.06552037 0.748172 0.28151482 -0.053556953 0.09681961 0.1104121 0.26644805 0.32903722 -0.28852114 0.573875 0.12604259 0.19198494 -0.33061224 0.30354607 0.4343869 -0.19782504 0.10139976 -0.18101852 -0.021549927 -0.439525 0.118230194 -0.39508182 -0.03815387 -0.17428675 -0.37417078 -0.28829753 0.38382703 -0.16213582 0.23724174 0.31832907 0.09807566 0.42828977 0.5359274 -0.03093008 -0.06977153 -0.18659447 0.41772315 -0.013357087 0.28640702 0.9022627 0.6877332 -0.21734641 -0.0070730452 -0.043694872 0.22977354 -0.035700392 -0.050883505 -0.03508021 0.085239515
nmap 0.18619461 0.11610627 -0.058916554 -0.20122266 0.09962094 -0.2676574 0.64891016 0.047155783 -0.16028018 0.12404826 -0.1261742 -0.04426153 -0.039331004 -0.23532976 -0.15306135 0.18316327 0.4662371 -0.16207017 -0.5277167 -0.3270775 -0.30747223 -0.0134581085 -0.5541657 0.1814469 -0.28834385 -0.43433934 0.21468784 0.044205137 -0.061014544 0.11112423 0.447659 -0.59377664 -0.12643747 -0.25980428 -0.41977337 0.23184846 0.2654337 0.25777292 -0.2762804 0.11490577 -0.46273068 -0.05661225 0.2797298 -0.0077336538 -0.2185779 -0.17408381 -0.4876233 0.11800503 -0.03952357 0.123447545 -0.16700526 0.075743884 0.7599928 0.27882254 -0.06448614 0.108251564 0.10457843 0.26374558 0.33658758 -0.31473568 0.5706076 0.1116642 0.17767507 -0.33705688 0.3049011 0.41912937 -0.17119049 0.1103413 -0.2246271 -0.033923004 -0.45163038 0.12330751 -0.4030717 -0.015557817 -0.17086518 -0.36292976 -0.28628018 0.35776377 -0.20663576 0.23409039 0.33537543 0.1075672 0.44156522 0.53582746 -0.009967964 -0.085134774 -0.20098351 0.41261867 -0.01779649 0.30745125 0.8894392 0.67033964 -0.22130294 -0.015153808 -0.049955986 0.23765177 -0.07747815 -0.05390449 -0.032280795 0.08860362
splunk 0.16790521 0.10554367 -0.08194314 -0.23191305 0.09019759 -0.28894925 0.6688431 0.040745832 -0.17353079 0.13743033 -0.12390962 -0.03860268 -0.033277523 -0.22340667 -0.18059537 0.173874 0.48759556 -0.16530865 -0.53783303 -0.32806134 -0.3324513 -0.021589443 -0.5741655 0.19459419 -0.31191817 -0.4565693 0.22039293 0.061127473 -0.05098946 0.12766719 0.47524703 -0.61232215 -0.12032186 -0.2573979 -0.4335134 0.22241016 0.27497724 0.28715283 -0.27613425 0.08792621 -0.46087897 -0.0681024 0.28106645 -0.01895816 -0.22535336 -0.20418522 -0.4870312 0.101376675 -0.027862508 0.12795007 -0.17157084 0.073985636 0.7710177 0.27124906 -0.07255546 0.09429294 0.10999747 0.28801954 0.3298412 -0.2847325 0.5800629 0.12905723 0.19877131 -0.3555305 0.31940147 0.44891635 -0.18067303 0.11271173 -0.21033062 -0.029581666 -0.45155877 0.12950255 -0.4122107 -0.030782916 -0.18483187 -0.3873294 -0.29396227 0.39152107 -0.1708288 0.24438171 0.34145284 0.10329657 0.44704685 0.55576974 -0.012472236 -0.093162775 -0.18400428 0.41636506 -0.02790116 0.29740277 0.91867083 0.7042119 -0.21975452 -0.0019701985 -0.056059066 0.24549869 -0.06170967 -0.050301027 -0.027996525 0.08316565
bash 0.2913165 0.16151744 0.08539535 0.12770009 0.62927526 -0.35236445 0.52599585 0.010413222 0.029313304 -0.20187062 -0.001830335 -0.15455846 0.13667795 -0.31841683 -0.2745352 0.17538697 0.33802903 0.014709059 0.07552471 -0.19978996 0.13977127 0.004616384 -0.33521682 -0.052095536 -0.0702053 -0.13744003 0.35603166 -0.06922313 -0.016962923 0.22181311 -0.46520588 -0.3913661 -0.022401454 -0.409249 -0.22464895 -0.1774169 0.005413159 -0.11047833 0.5466699 0.053087473 -0.525219 -0.1569338 0.010129553 -0.02782663 -0.16852051 0.014058357 -0.24916409 0.41789845 -0.07425804 0.14426953 0.04834051 -0.11872814 0.63156116 0.044028807 -0.16017242 0.41925868 0.054599617 0.20367408 0.24474567 -0.51486236 0.5300168 0.0016983541 0.25763738 0.11688823 0.15211825 0.67782825 -0.1316728 0.21145721 -0.3119559 -0.06231502 -0.15788375 0.2559379 -0.104787566 0.07717646 0.0019089571 0.2012677 -0.27510193 -0.34856653 -0.6273349 -0.26336095 0.25171673 -0.02155939 0.75987375 0.5090776 -0.044501398 -0.33649746 -0.055827316 0.43598625 0.31050628 0.60437334 0.1215512 0.63911426 0.18501648 0.15514532 0.34190038 0.4463709 0.048055574 -0.5189712 -0.023585493 -0.22049059
firewalls 0.12332183 0.09604075 -0.08002943 -0.28184915 0.10434616 -0.33217165 0.6888998 0.027277049 -0.20614627 0.17399675 -0.1155781 -0.02716975 -0.065471984 -0.20245998 -0.21120155 0.16049089 0.56327194 -0.16689059 -0.531929 -0.32534418 -0.39789194 -0.06258964 -0.6336147 0.20913476 -0.35451627 -0.47623125 0.22266431 0.055174552 -0.034313206 0.15902369 0.514427 -0.62936485 -0.11078532 -0.27936774 -0.4645604 0.15211152 0.30644405 0.3051568 -0.23582834 0.008181889 -0.47651178 -0.073261775 0.28256252 -0.0141248545 -0.27286962 -0.25653896 -0.49840903 0.10346407 0.0061930264 0.13935171 -0.17661808 0.007581649 0.7879974 0.24360602 -0.08360528 0.08498602 0.11707262 0.3311255 0.28636163 -0.2559343 0.56004024 0.1414226 0.23878211 -0.3575815 0.34746018 0.5051825 -0.188501 0.10101801 -0.16197711 -0.016207801 -0.45255348 0.14137654 -0.369688 -0.07267351 -0.18506345 -0.42100433 -0.31938997 0.4318479 -0.10706728 0.23328272 0.3504012 0.100092284 0.43396088 0.594238 -0.04080978 -0.105304584 -0.14374079 0.45486864 -0.015590391 0.31107754 0.9299939 0.77537477 -0.19629064 0.046147585 -0.038487736 0.26396272 -0.015345451 -0.0722191 -0.034933664 0.04884801
ansible 0.29846564 0.1551522 0.07134696 0.1362331 0.6251153 -0.33683157 0.5311656 0.022873426 0.023959516 -0.19578297 -0.0035280155 -0.16442318 0.13624255 -0.34353286 -0.2685391 0.19461362 0.33154243 -0.001059114 0.06201925 -0.21605654 0.13231054 0.003429022 -0.32642606 -0.05486029 -0.05325822 -0.14789999 0.36499244 -0.07567873 -0.031752955 0.21835305 -0.4686589 -0.3967455 -0.029069662 -0.41466016 -0.22089806 -0.16809595 0.0054871296 -0.11346645 0.5408098 0.07185685 -0.5297854 -0.15187901 0.011238798 -0.024632156 -0.17112866 0.007265636 -0.27087712 0.424297 -0.08569822 0.16869321 0.05155383 -0.09624383 0.6499101 0.04552582 -0.15780239 0.39740846 0.055548735 0.1973355 0.25686452 -0.5413652 0.56817716 -0.015649572 0.26251927 0.11713693 0.1373658 0.68318903 -0.13988477 0.20133251 -0.3266348 -0.06829899 -0.18025206 0.2507641 -0.118361525 0.075208 -0.006927649 0.19219135 -0.27650177 -0.34152147 -0.6471444 -0.23642 0.25152537 0.0029892558 0.75203574 0.49809712 -0.05097176 -0.32128295 -0.070090905 0.45765802 0.31642228 0.6148934 0.13131624 0.6184547 0.17466329 0.14173244 0.3447042 0.44571075 0.045553222 -0.5245396 -0.016870243 -0.22825798
powerbi -0.21851666 0.352693 0.23717463 0.40362334 0.21202028 0.21744938 0.06625406 -0.010134262 -0.35923937 0.18311192 -0.055876985 -0.13920341 -0.64025444 -0.20009857 0.28194684 0.057743896 0.3958556 -0.20350048 0.015244736 -0.34253958 -0.11649378 0.20659028 -0.49869323 -0.17663966 -0.14769858 -0.26388907 -0.08464788 0.019687872 -0.1076794 0.17720212 0.38606557 -0.2239221 -0.35695636 -0.36497018 -0.13184895 -0.06158643 0.5476357 -0.36184907 0.011413665 -0.3384427 0.14918022 0.22926018 0.016910521 0.55894154 -0.029980151 0.19197781 -0.35798645 0.41145507 0.17142233 0.040557884 0.28509912 -0.17880487 0.35312963 0.09958021 0.15120105 -0.3578864 0.26763135 0.032234848 -0.046761066 -0.18460153 0.055709954 0.05050004 -0.46564454 -0.018487317 0.17422977 0.22882 0.08191565 -0.030307738 -0.058147002 0.105627164 -0.4065558 0.1293862 0.043892752 0.2565308 0.33458903 0.06945484 -0.46240517 -0.021249173 -0.41988543 -0.13758178 -0.20975125 0.13483019 -0.036656205 0.07540891 -0.3478007 0.24436836 -0.14630619 0.18362646 0.42135167 0.1971138 0.40603057 -0.19920212 -0.23606305 -0.35994795 -0.029687181 -0.14172211 -0.19321838 -0.14680053 -0.024504952 0.579082
typescript 0.15279265 0.6833192 0.29296947 0.23886152 0.28509542 -0.2813955 0.5181925 0.54877114 -0.18976782 -0.2576285 -0.22552848 -0.071589395 -0.04239947 0.021392524 -0.03289526 -0.015677657 -0.37473628 0.13543263 -0.16782212 -0.04202437 0.061068237 0.15238023 -0.6478517 0.19730408 -0.25232863 -0.10470413 0.20572883 -0.168596 0.02444403 -0.47544593 -0.23686376 -0.48807073 -0.029202925 -0.37980247 -0.50406694 0.7381909 -0.06375697 -0.12931761 -0.49634895 0.2792945 -0.41681656 0.110383675 0.022265779 0.38554218 0.02945733 0.7603269 -0.1763187 0.44241682 0.36111084 0.18885446 0.20265004 -0.14271069 0.52442485 0.1951114 -0.12557574 -0.006047181 0.23713474 0.26333666 0.40194035 -0.23165709 0.046862185 0.3340896 -0.4534765 -0.66300136 0.67509943 -0.38488463 0.6352455 0.16784349 -0.76977766 0.2683283 -0.23932654 0.1037415 -0.18473268 0.5283434 0.025097942 -0.044154853 -0.28517202 -0.176559 -0.5416794 -0.16809683 0.55954266 -0.047537845 0.4572946 0.39302155 0.26306072 -0.5429133 -0.6124345 0.051266994 0.07271841 0.371501 0.47281995 -0.034648776 -0.37085402 -0.2190685 -0.24672565 -0.041326176 -0.68604034 -0.13366097 0.054838322 0.13904387
lambda 0.1598812 0.10034277 -0.006061481 0.14077795 0.5624304 -0.23488988 0.48233435 0.26257136 -0.049465768 -0.048392344 -0.013110665 -0.16070262 -0.008345362 -0.6532915 -0.5575591 0.037084837 0.18910056 0.19445634 0.20606124 -0.2558318 0.29516342 0.03596134 -0.19077726 0.009494458 -0.02029466 -0.120316505 0.5067299 -0.12043352 0.5366109 0.354227 -0.18178144 -0.14541842 -0.35821807 -0.28606066 -0.11203615 0.16930924 -0.11483554 -0.52301615 0.5901676 -0.14721514 -0.02865989 -0.09103671 -0.15415879 -0.02610071 0.104420476 0.2182227 -0.008232907 0.38863313 0.13253272 -0.07639865 0.033944543 0.077975556 0.24125232 0.14026646 -0.5729088 0.37646478 0.07411621 0.0078285355 -0.061408155 -0.16415417 0.35542402 -0.09890179 -0.083633445 -0.14541416 0.17686248 0.2125516 0.33826914 0.19622338 -0.8406555 -0.1355544 -0.22243646 0.052058313 -0.16376317 0.5478582 -0.055080187 0.055637553 -0.59632725 -0.5156845 -0.8349742 -0.31976563 0.30729505 -0.29123068 0.48909348 0.475868 -0.18517038 -0.1341675 0.03076398 -0.029733103 0.053314712 0.40132418 0.15907893 0.14100932 0.38483614 0.07572525 0.16990991 0.53455865 -0.6840501 -0.8022997 0.11724608 0.23781002
cloudformation 0.16384952 0.0956465 0.023964496 0.16000515 0.5694463 -0.26651597 0.48473737 0.25786185 -0.059155524 -0.03995019 -0.019310994 -0.13636588 -0.02413124 -0.6614317 -0.53814733 0.043904707 0.21761559 0.18115775 0.24059014 -0.25832695 0.31498885 0.01545555 -0.22657937 0.0026744523 -0.023297245 -0.14546207 0.5177817 -0.14846855 0.56699055 0.34857526 -0.20526305 -0.17173335 -0.33839312 -0.30237666 -0.10127197 0.13873097 -0.12969133 -0.5389266 0.648162 -0.19955002 -0.04725038 -0.063297644 -0.1623093 0.02520571 0.09356316 0.19117977 -0.03322387 0.41109735 0.13960804 -0.085049406 0.038554747 0.058827713 0.26872414 0.15201347 -0.55539006 0.37859458 0.077638105 0.00010046538 -0.09628963 -0.20110287 0.3325406 -0.113010265 -0.07227105 -0.1580779 0.18177119 0.23314662 0.3656012 0.1750119 -0.8440432 -0.13814141 -0.25184745 0.04929695 -0.13727534 0.5494463 -0.028395439 0.10119537 -0.59319735 -0.5454307 -0.8307266 -0.35579276 0.300496 -0.29121733 0.48360497 0.49232394 -0.22029918 -0.10812022 0.052576177 -0.020704491 0.07745436 0.457619 0.14692293 0.16018455 0.37127644 0.08858167 0.21349733 0.5399378 -0.666175 -0.8575737 0.13057622 0.23028184
react -0.0003082494 0.76836777 0.30186236 0.11787147 0.23291558 -0.4540971 0.4820066 0.6260095 -0.269534 -0.2403845 -0.21279842 -0.027894199 -0.05138731 0.23376417 -0.14935745 -0.113679595 -0.36524817 0.18729205 -0.026927715 0.063442804 -0.12335134 0.0512061 -0.7571369 0.25151876 -0.38706043 -0.07244721 0.22456974 -0.147285 0.09099452 -0.48072815 -0.22184135 -0.4263269 0.07200255 -0.40916365 -0.56819224 0.60890716 -0.050744943 -0.04442906 -0.44719398 0.06985391 -0.37083238 0.06338689 -0.041904762 0.34849405 -0.04295931 0.7555143 -0.039370544 0.37707987 0.52863246 0.21140137 0.265773 -0.34413418 0.4280837 0.054489873 -0.15869664 -0.059431363 0.27666473 0.45871672 0.24862374 -0.0068481783 -0.18281956 0.43734685 -0.39214078 -0.7195193 0.8444677 -0.3693932 0.76362985 0.17442638 -0.6746964 0.35819978 -0.12213971 0.17200562 -0.03504812 0.42314303 0.045056164 -0.103474855 -0.3050575 -0.13099653 -0.31394055 -0.25556213 0.61000323 -0.062281452 0.43187904 0.4445283 0.3267785 -0.68690485 -0.50293624 -0.0012925357 0.08276686 0.325693 0.34441012 0.06264081 -0.27690572 -0.075876236 -0.31165588 -0.03573411 -0.5954668 -0.15891232 0.045237605 0.04940416
terraform 0.35133854 0.11986383 0.082331195 0.13789517 0.6368412 -0.35942563 0.5597068 0.0042935996 0.026138851 -0.1925039 0.007111708 -0.14924666 0.14455442 -0.3631975 -0.2597051 0.21117988 0.37178054 0.0009478532 0.04197986 -0.23746686 0.1961642 0.009433974 -0.34334216 -0.046865266 -0.06096193 -0.1589521 0.3806593 -0.110616066 0.008016185 0.23755333 -0.46105984 -0.41789508 -0.05211476 -0.40359747 -0.21917598 -0.16001222 -0.020357644 -0.11960874 0.5594523 0.07358746 -0.5518085 -0.1522794 0.013531704 -0.02450151 -0.15737943 -0.011906994 -0.29256162 0.4451347 -0.103487775 0.13937642 0.019352105 -0.065820284 0.69575036 0.07226265 -0.16897288 0.45317927 0.05715459 0.1536069 0.26103786 -0.5787801 0.596849 -0.042140547 0.27102628 0.11706249 0.1168632 0.69215363 -0.14761625 0.18900684 -0.35390833 -0.10375675 -0.20719725 0.2350408 -0.13836576 0.10758935 -0.008129845 0.21663035 -0.26360565 -0.34011167 -0.65619695 -0.23673572 0.26026306 -0.025078913 0.75349516 0.5293469 -0.08808129 -0.28925347 -0.052300684 0.46843007 0.28051412 0.6342472 0.15461682 0.6509254 0.1597295 0.14706747 0.37037534 0.4706481 0.045248665 -0.5632927 -0.008574724 -0.19935614
css 0.12399817 0.58750975 0.25621256 0.20592026 0.24707839 -0.24424373 0.45247313 0.46441126 -0.16351536 -0.21399948 -0.1962107 -0.05479444 -0.026562179 0.022647476 -0.03443889 -0.021908138 -0.31130627 0.12098422 -0.15198682 -0.028870147 0.063620746 0.1091663 -0.5600353 0.17975739 -0.22433884 -0.08288276 0.19246538 -0.15445463 0.024094524 -0.4027528 -0.20716655 -0.42517924 -0.02869064 -0.3237823 -0.42856935 0.63166964 -0.06529037 -0.1114221 -0.41335472 0.23779233 -0.37105498 0.091626525 0.01999692 0.32947418 0.017871648 0.64501435 -0.14210387 0.3825975 0.3221453 0.16536948 0.16679648 -0.13335904 0.43488845 0.17132565 -0.107290804 0.004639258 0.19506593 0.22347224 0.3429583 -0.21723506 0.037017744 0.2949217 -0.38365507 -0.57360464 0.56738603 -0.32838836 0.5434495 0.14155546 -0.6577875 0.22885922 -0.20705755 0.089394756 -0.15842809 0.4600738 0.027878592 -0.021979818 -0.23741262 -0.15871766 -0.44782192 -0.14802203 0.47638983 -0.053141158 0.39325574 0.32996228 0.21720949 -0.4755816 -0.52625513 0.05685773 0.059820954 0.3323736 0.40376613 -0.032255065 -0.3214713 -0.20619532 -0.20665036 -0.028720614 -0.5753926 -0.10456038 0.04020437 0.10405271
ci/cd 0.3206215 0.16206267 0.07807727 0.14592014 0.61817914 -0.32374558 0.5320169 0.010966936 0.029729584 -0.20597164 0.0004359568 -0.17350939 0.14173266 -0.3489395 -0.2519471 0.1937494 0.32488447 0.0072218273 0.0523039 -0.21882753 0.14565274 0.021772189 -0.31420076 -0.05410332 -0.050556615 -0.14114873 0.3589336 -0.07634263 -0.035469968 0.21565308 -0.47166094 -0.39243564 -0.031873595 -0.4076025 -0.21647309 -0.15125127 0.0007703679 -0.11516921 0.51850885 0.10207954 -0.53019655 -0.15426046 0.015206531 -0.020984385 -0.1541181 0.014844143 -0.2658552 0.42164797 -0.10213861 0.16173442 0.050600834 -0.08085624 0.65184677 0.052222725 -0.15402095 0.42240623 0.05168811 0.18425049 0.27007732 -0.5430451 0.57884735 -0.02567004 0.2530109 0.12478736 0.1320264 0.66632295 -0.15422854 0.21277906 -0.34008038 -0.08478714 -0.1820666 0.25409195 -0.13375634 0.0838221 0.0037742166 0.20221701 -0.26693207 -0.34345633 -0.6649347 -0.23146245 0.24201302 0.0010014507 0.7551157 0.50012714 -0.044692516 -0.3085003 -0.07661521 0.450817 0.31062463 0.601043 0.12806489 0.6161042 0.1638669 0.12278355 0.33682355 0.43101063 0.036848724 -0.51385814 -0.022955097 -0.20195737
s3 0.13826418 0.0787992 -0.0070548905 0.118910864 0.47297126 -0.18035379 0.40680945 0.20159218 -0.04180148 -0.030659616 -0.023523856 -0.12192632 -0.007888002 -0.5402864 -0.45994765 0.023503888 0.163083 0.15602374 0.18447374 -0.20290723 0.25836042 0.031797513 -0.16855939 0.017144367 -0.008382848 -0.102494374 0.4184272 -0.096389 0.4430249 0.2830969 -0.17521732 -0.13099602 -0.28273734 -0.22811133 -0.08556929 0.14202493 -0.118338555 -0.41510597 0.48901248 -0.118267186 -0.024743285 -0.06926778 -0.13623951 -0.008246237 0.08028819 0.19730891 -0.019769277 0.32333505 0.10506094 -0.060529344 0.017876841 0.049657114 0.20260195 0.10210242 -0.46086186 0.3176109 0.04895749 0.022464445 -0.056886394 -0.1504551 0.30778158 -0.0741685 -0.059899088 -0.1303367 0.15558097 0.17384899 0.2835651 0.17110023 -0.6960559 -0.102462694 -0.17857584 0.0342767 -0.13084655 0.45857376 -0.045819327 0.05417769 -0.48886886 -0.42553782 -0.7033245 -0.24177708 0.25749147 -0.24454239 0.418086 0.38017824 -0.14294949 -0.118434 0.024870355 -0.0004955594 0.061385226 0.33864534 0.14632916 0.11593443 0.32841507 0.06406741 0.13560025 0.44344378 -0.5675446 -0.6691275 0.08656892 0.1901905
seaborn -0.21592513 0.32667777 0.23615037 0.40299037 0.2116201 0.21458662 0.072820425 -0.0163403 -0.3494959 0.19035259 -0.05156165 -0.14513192 -0.6296197 -0.22797085 0.27361104 0.06838702 0.40517807 -0.20988317 0.010892592 -0.34418592 -0.112704284 0.19269095 -0.46912497 -0.18364117 -0.126594 -0.27741745 -0.07623008 0.030010195 -0.101100706 0.19322857 0.3867298 -0.21918036 -0.35724217 -0.35959977 -0.11426599 -0.075825766 0.543515 -0.36496848 0.04309381 -0.3369808 0.14171243 0.23240504 0.016745271 0.54762506 -0.032961816 0.16355135 -0.3682352 0.41216165 0.15488783 0.040705156 0.2741604 -0.1795 0.35398608 0.105349675 0.14656912 -0.35442927 0.24667244 0.038455058 -0.045645554 -0.2146571 0.064732864 0.04471 -0.44675636 -0.017222857 0.15853553 0.23944718 0.07542958 -0.041105848 -0.044469208 0.09612932 -0.41761047 0.12612568 0.0445564 0.24382862 0.32233316 0.07058675 -0.4625883 -0.0372357 -0.4250356 -0.13152485 -0.21508695 0.13813123 -0.04634289 0.07041413 -0.36373022 0.24709743 -0.13363554 0.18261588 0.43136117 0.21395673 0.3954594 -0.19944423 -0.2462145 -0.3480835 0.000650483 -0.120971106 -0.18610445 -0.14226648 -0.030088656 0.5604107
kotlin -0.30649394 0.47637 0.23673931 -0.15186091 0.3132655 -0.7025854 0.41289005 0.24181288 -0.4521381 0.09688659 -0.01937253 0.08126974 -0.29373494 0.32513008 -0.3094992 -0.19257537 0.46404147 0.06555348 0.2767056 -0.009284055 -0.42849725 -0.17595972 -1.012372 0.18538459 -0.6167643 -0.16845211 0.18243726 -0.10859053 0.2416066 0.10744218 0.18371883 -0.353139 0.014630923 -0.45001101 -0.51784915 -0.25213942 0.20308904 0.08219024 0.21005614 -0.7764985 -0.18311147 -0.030103441 -0.13203685 0.24217466 -0.3044504 0.10349174 -0.061175164 0.29803857 0.6585231 0.09220294 0.18352078 -0.6775356 0.40448353 -0.19969702 -0.20316121 -0.08411343 0.35454568 0.59726626 -0.25987715 0.24930775 -0.34401044 0.35442156 -0.03617355 -0.39493516 0.7705721 0.34726086 0.48925942 0.084070906 -0.06545496 0.23952569 -0.0921221 0.3094063 0.2673101 0.020971369 0.16649918 -0.1759481 -0.4458076 0.10771918 0.2037679 -0.40081736 0.34893295 -0.116560735 0.2770519 0.59451497 -0.09648608 -0.44102544 0.12695543 0.24291518 0.18021223 0.32348043 0.23960873 0.5707227 0.06998674 0.28847724 -0.056404453 0.17737922 0.050871164 -0.44506213 0.00545715 -0.01629898
nodejs -0.04960222 0.53153217 -0.036971156 0.27352172 0.39645305 0.20585425 0.4916657 0.03269588 -0.27689478 -0.12134999 0.09553614 -0.4879474 -0.277743 -0.11392102 -0.28855473 -0.019891191 0.34641382 0.12514362 -0.03618918 -0.36020872 -0.25207067 0.44168082 -0.26343325 -0.14322181 -0.16389887 0.13656056 0.1321059 0.29438928 -0.31771412 0.457858 0.08841008 0.0801627 -0.4536678 -0.26613837 -0.24053037 0.077366956 0.5858012 -0.24357425 0.06468196 0.14281529 0.26088354 -0.2744496 0.0061302097 -0.09223268 0.11175926 0.60202754 0.08377006 0.3644376 0.048081707 0.06213345 0.3329744 0.07637807 0.1984224 -0.18313834 -0.06709786 0.06646137 0.22226223 0.12918645 0.33373618 0.059563864 0.66345525 0.18037052 -0.30101195 0.43317083 0.36564317 0.36912513 -0.2766743 0.48272413 -0.2616018 -0.024101477 -0.0822961 0.30609015 -0.25967667 0.2228074 0.13506638 -0.1242474 -0.6530442 0.03676629 -0.9003614 -0.028195495 -0.12636714 -0.020147342 0.6724534 0.090947956 0.08983335 -0.23638095 -0.2800907 0.22523557 0.2784798 -0.20193757 0.38180307 0.041341715 0.4196365 -0.28118256 -0.37188697 0.10262837 -0.3920025 -0.14096662 -0.22371876 0.48389375
gcp 0.15654053 0.07431066 -0.0008829205 0.13012287 0.51801443 -0.23651734 0.42538267 0.2265016 -0.029985355 -0.04522584 -0.00040603708 -0.13704033 -0.00298393 -0.5971743 -0.49959937 0.03532117 0.1758065 0.17556433 0.20412748 -0.22081435 0.28609213 0.01842821 -0.16597898 0.0047857123 -0.013049945 -0.098893724 0.4649155 -0.11833853 0.4893653 0.30386358 -0.19432804 -0.13942632 -0.3108934 -0.25275034 -0.09344603 0.13798358 -0.12371484 -0.4708664 0.5707781 -0.14062768 -0.04310713 -0.07624014 -0.13463303 -0.01055415 0.09292103 0.18092541 -0.012047871 0.3564674 0.11646091 -0.0658554 0.026331453 0.070826 0.22289501 0.13378306 -0.51839846 0.34695643 0.06444649 -0.015941875 -0.052933756 -0.17316365 0.31195518 -0.10408885 -0.06349791 -0.12206452 0.15405467 0.20172212 0.30411324 0.17002952 -0.758273 -0.13045385 -0.19743155 0.047250003 -0.13429454 0.48857626 -0.038950462 0.07625598 -0.51718235 -0.4717023 -0.75382775 -0.30594292 0.26997355 -0.25509462 0.44826323 0.4304891 -0.17143746 -0.11774564 0.03345919 -0.024726698 0.051883083 0.37843663 0.118972786 0.13222484 0.35530585 0.08006107 0.178105 0.48622793 -0.6023761 -0.74757576 0.10741056 0.19495407
jenkins 0.33241 0.16300717 0.07752241 0.14647943 0.64039344 -0.3297841 0.5458366 0.004307957 0.029446457 -0.2048521 -0.0012997148 -0.17824613 0.13754365 -0.34913605 -0.25472155 0.20970042 0.34870583 0.0021843482 0.044384953 -0.23135452 0.15305893 0.026387574 -0.32455286 -0.056970645 -0.051499337 -0.14988296 0.36499658 -0.07299915 -0.031117996 0.23294719 -0.4652564 -0.3979547 -0.044568684 -0.4076008 -0.21999122 -0.151478 0.013605681 -0.115185075 0.5350582 0.100954115 -0.5361929 -0.16351385 0.024941742 -0.026673099 -0.15654646 0.015254189 -0.27376914 0.44248846 -0.11250054 0.15737297 0.044658896 -0.07547055 0.67509294 0.059826918 -0.15643735 0.4367462 0.055788927 0.17571764 0.28455672 -0.56561595 0.597821 -0.025412634 0.2556622 0.13703386 0.1312268 0.690141 -0.16208525 0.21182477 -0.33981284 -0.08483171 -0.19436912 0.2507259 -0.1411027 0.09393979 -0.006030962 0.2058313 -0.26652795 -0.35089037 -0.6739106 -0.23479977 0.24621359 -0.010744909 0.76292056 0.5124566 -0.05281341 -0.31005627 -0.08075451 0.4637301 0.3103695 0.61299914 0.15249574 0.6309934 0.1583501 0.123980395 0.35213482 0.45132923 0.03821264 -0.52181125 -0.025542473 -0.19607
android -0.26112166 0.4751872 0.23611678 -0.15789871 0.30532342 -0.7278946 0.43615332 0.24952252 -0.42682782 0.05550849 -0.0069829966 0.08050517 -0.23014571 0.34714195 -0.34422588 -0.187829 0.43840417 0.09990348 0.28448042 -0.009711469 -0.39513227 -0.15408473 -0.9793697 0.18614095 -0.61134684 -0.13827293 0.19359393 -0.09058909 0.25533786 0.11563963 0.12034 -0.32630032 0.036422316 -0.4338892 -0.51321745 -0.22891816 0.1632851 0.09170518 0.23720501 -0.7264318 -0.18861197 -0.066236705 -0.14218606 0.17696878 -0.2839608 0.1190721 -0.0056966594 0.27784833 0.6441535 0.07789708 0.18630643 -0.64685434 0.37887454 -0.21118183 -0.22413698 -0.010831414 0.34614038 0.59515756 -0.22810988 0.27946395 -0.31179228 0.33725423 0.012207279 -0.354725 0.78379476 0.35551503 0.46550706 0.13798466 -0.089283116 0.22412813 -0.05351459 0.3203178 0.23316255 0.01983043 0.15112731 -0.15471745 -0.42528754 0.08927835 0.19699895 -0.4103007 0.3490514 -0.13398571 0.3535935 0.5985638 -0.053867634 -0.46528605 0.13116004 0.21833828 0.15917738 0.3023994 0.20343758 0.61304086 0.12156416 0.3013168 -0.08336416 0.20044804 0.058166627 -0.45889443 0.00081799226 -0.03531045
react native -0.2714899 0.54478115 0.24115205 -0.15449435 0.23282196 -0.71135116 0.4066569 0.32622254 -0.42475036 0.026444227 -0.046369947 0.074251585 -0.21245235 0.3579676 -0.3530301 -0.1939008 0.33591163 0.118503116 0.27563846 0.009666866 -0.4394462 -0.15763177 -0.9409782 0.18958288 -0.6065831 -0.148564 0.2139036 -0.06643069 0.27395236 0.0582175 0.11651225 -0.3038624 0.07294273 -0.43936872 -0.5147996 -0.1519355 0.16877124 0.082138926 0.15508074 -0.6695229 -0.16819753 -0.06403557 -0.13984606 0.17962414 -0.25959817 0.18791549 0.045550425 0.2405377 0.6537815 0.079076156 0.23880635 -0.64344287 0.33736467 -0.20310307 -0.21860826 -0.034085825 0.34801736 0.6502641 -0.21953055 0.31826228 -0.3586158 0.3751457 -0.007495554 -0.4027798 0.8299857 0.26747653 0.5369791 0.14945379 -0.14811404 0.260659 -0.056235753 0.3193346 0.21930395 0.030359155 0.14590265 -0.16508664 -0.44375685 0.049815044 0.17328337 -0.4176564 0.37163684 -0.112180784 0.35446963 0.5891603 0.009235977 -0.48119828 0.083882004 0.13357885 0.17085621 0.28348604 0.18819618 0.575473 0.10237624 0.27799496 -0.149621 0.16864501 -0.016730169 -0.42769486 0.0042866576 -0.015637437
statistics -0.20527934 0.19230096 0.22561419 0.2861378 0.3669366 0.09750701 0.122909695 -0.07672232 -0.31740594 0.2378976 -0.041160174 -0.022682058 -0.6031893 -0.31155798 0.2532365 0.048598826 0.47265548 -0.19244958 0.030692372 -0.3087538 -0.06544739 0.069752686 -0.61542416 -0.124256395 -0.17039743 -0.33316192 -0.06500097 -0.10925177 0.028329527 0.10273331 0.3659409 -0.3629807 -0.35802066 -0.34304088 -0.17687525 -0.12603621 0.37529877 -0.31719494 0.09811392 -0.4989829 0.03038123 0.32230312 0.0023462952 0.63446975 -0.071901955 0.055403154 -0.53810966 0.4694905 0.21665737 0.027730433 0.100206085 -0.22543867 0.42489052 0.12527373 0.11552896 -0.33541048 0.22368748 0.0071095843 -0.15521292 -0.29499355 0.00028682937 0.019621871 -0.38195777 -0.14548653 0.112961344 0.21386158 0.18354486 -0.16690966 -0.044627827 0.102510534 -0.46659055 0.060227565 0.138146 0.2578529 0.24871911 -0.0036080598 -0.3999557 -0.044673085 -0.2912945 -0.12488326 -0.100800514 0.04370893 -0.15249242 0.19622427 -0.4759542 0.27042285 -0.07781573 0.30215394 0.27942798 0.399446 0.46047494 -0.14354333 -0.31602237 -0.22110762 0.20869169 -0.071154706 -0.14289635 -0.22440648 0.036169436 0.41674095
bootstrap 0.15243897 0.631576 0.28211057 0.21748608 0.26532885 -0.26463285 0.50350237 0.50344795 -0.18544607 -0.239607 -0.21188909 -0.05556301 -0.033840444 0.02184518 -0.024234217 -0.016914533 -0.32343307 0.12159404 -0.18068157 -0.048759382 0.07309907 0.13595085 -0.6310791 0.1979968 -0.24846058 -0.099622376 0.1935049 -0.16706458 0.031317536 -0.44489667 -0.2088372 -0.4717057 -0.041504543 -0.35018006 -0.48244247 0.7032975 -0.06547313 -0.11291372 -0.47026426 0.26050612 -0.40395448 0.10223093 0.028007122 0.36162224 0.026296465 0.7033618 -0.18420619 0.42272422 0.33981165 0.17335196 0.16895707 -0.121120684 0.5044295 0.19926248 -0.109295085 0.0035311047 0.23134974 0.22731827 0.38350335 -0.23238952 0.05082754 0.31459433 -0.42102662 -0.6308437 0.63489395 -0.35928747 0.57823306 0.15151139 -0.7228075 0.24287851 -0.23090266 0.0940285 -0.18591051 0.50548214 0.023529802 -0.04148039 -0.25163016 -0.14295772 -0.49032152 -0.14456451 0.52268714 -0.05600774 0.42414814 0.36720368 0.23529431 -0.4963739 -0.57774365 0.068195365 0.050977707 0.35782433 0.47051173 -0.019120373 -0.36259678 -0.22091328 -0.23260924 -0.03596319 -0.62467724 -0.11783234 0.04967625 0.14076269
firebase -0.26238844 0.44596562 0.19063175 -0.25252292 0.21713981 -0.74714845 0.47195932 0.23425616 -0.43324664 0.11095539 -0.036194693 0.09796976 -0.21849935 0.3338741 -0.3628671 -0.1542325 0.51150197 0.056984168 0.16778553 -0.049266104 -0.51748186 -0.20081942 -1.0019952 0.2096041 -0.6490791 -0.2368465 0.21219184 -0.047419373 0.24471425 0.14482535 0.25137842 -0.39155635 0.06500319 -0.43868393 -0.5378755 -0.24030092 0.23158835 0.18262032 0.16868699 -0.71479565 -0.23473634 -0.08288926 -0.06800958 0.14065278 -0.34028572 0.0022191938 -0.062978245 0.20264311 0.6080161 0.08837644 0.1558716 -0.631568 0.44696462 -0.17174208 -0.20876344 -0.022257533 0.33889973 0.67198974 -0.21247059 0.27317163 -0.25960904 0.35346448 0.111789666 -0.39261374 0.79289293 0.4319758 0.39880297 0.13126116 -0.043690816 0.2172165 -0.12001757 0.33035386 0.1808251 -0.071496755 0.10799694 -0.24338646 -0.44147852 0.18432534 0.2700344 -0.34517485 0.3620508 -0.08351078 0.36366192 0.6589049 -0.050470058 -0.42490274 0.1443689 0.25089052 0.14790776 0.31368363 0.32464597 0.7444957 0.07985485 0.32050872 -0.09846984 0.22753666 0.10769382 -0.4055744 -0.004819656 -0.04704907
javascript 0.09822812 0.7422692 0.31453198 0.22238016 0.19435889 -0.31456846 0.4732709 0.592309 -0.20684785 -0.2544528 -0.2353699 -0.04562213 -0.04597208 0.09847346 -0.035863545 -0.031078812 -0.3977821 0.13309619 -0.12776966 -0.03383649 -0.0157698 0.11956836 -0.657311 0.19312842 -0.2822898 -0.12462425 0.19907069 -0.13785894 0.04169907 -0.4848325 -0.20904729 -0.4439569 0.024959749 -0.38647923 -0.49470416 0.7068784 -0.03861209 -0.10490906 -0.4993127 0.21785876 -0.37840426 0.114417896 0.014890143 0.37898648 0.021171521 0.7451573 -0.10629593 0.3837076 0.40563935 0.18789358 0.26516578 -0.18783703 0.46431133 0.17407976 -0.100328304 -0.032956365 0.26202706 0.33894715 0.34370422 -0.14379497 -0.050626416 0.37543583 -0.42343095 -0.67001075 0.72802305 -0.38051057 0.6760522 0.18497881 -0.7259952 0.29179266 -0.22820446 0.1313463 -0.15197651 0.47176605 0.054347552 -0.042764023 -0.28236285 -0.18837225 -0.4497453 -0.2012225 0.53020495 -0.013281299 0.4447238 0.39258483 0.29386628 -0.5464782 -0.5718132 -0.01576027 0.101648584 0.35599366 0.42130876 -0.0045625567 -0.36817965 -0.2005921 -0.2871277 -0.055972233 -0.65296423 -0.119221576 0.049133535 0.13889292
flutter -0.25593317 0.46109033 0.20608959 -0.17849356 0.29514274 -0.7123926 0.4141761 0.2489116 -0.40402836 0.040879346 -0.008728126 0.060758714 -0.20387417 0.35040495 -0.378293 -0.18946663 0.41856566 0.11525175 0.28151223 0.0048476486 -0.4110906 -0.15865423 -0.922252 0.18191025 -0.59167814 -0.11519997 0.2087206 -0.066832684 0.24462637 0.12747006 0.09722037 -0.29103345 0.04264499 -0.42123702 -0.49920753 -0.24485256 0.16214883 0.09711903 0.24204552 -0.6889999 -0.16894533 -0.09838917 -0.14337783 0.13838325 -0.28206477 0.124310516 0.025691357 0.24966304 0.61794764 0.07234881 0.19186296 -0.6363686 0.34469613 -0.23806639 -0.23336706 0.002251953 0.32546014 0.6086845 -0.21627346 0.30129176 -0.28904095 0.33212712 0.04237171 -0.3249586 0.77074665 0.35153732 0.44260314 0.14850543 -0.08480482 0.21754308 -0.024722159 0.3217993 0.23201376 -0.0043999916 0.13059951 -0.16352406 -0.42688435 0.08083569 0.18813944 -0.40198815 0.34556603 -0.13013467 0.36477363 0.58016086 -0.030160943 -0.47196642 0.13244665 0.2047003 0.15673615 0.27754697 0.17077066 0.60782266 0.16445537 0.3064296 -0.09806816 0.20597717 0.05719254 -0.44926715 0.00044656868 -0.058357593
azure 0.16835786 0.08185156 0.006406902 0.13452615 0.5326865 -0.23871289 0.46767998 0.23015946 -0.047630034 -0.04484559 -0.01962357 -0.13523142 -0.0017645791 -0.61609364 -0.50663 0.04631785 0.18948154 0.16841564 0.19672894 -0.23870088 0.29814386 0.024944153 -0.18909377 0.010311077 -0.009913955 -0.12828627 0.47702712 -0.117217496 0.5178061 0.33710828 -0.19531634 -0.15317854 -0.3249221 -0.27734962 -0.09794316 0.14110273 -0.1344869 -0.48797825 0.5756932 -0.15110046 -0.03994259 -0.0763047 -0.14610757 -0.009803575 0.08907085 0.18320288 -0.029450452 0.36860168 0.1132144 -0.07602103 0.017001262 0.061200134 0.24972552 0.13769935 -0.5163692 0.3648311 0.062409166 0.0011200535 -0.07411537 -0.18652806 0.33387095 -0.10005873 -0.07109823 -0.14441818 0.15126976 0.22103792 0.3127704 0.17096397 -0.7796888 -0.1402058 -0.22417948 0.044508945 -0.14415865 0.51292413 -0.048538975 0.08232986 -0.54784274 -0.48833174 -0.7699224 -0.30101538 0.28544423 -0.27373543 0.45667353 0.45529762 -0.1948371 -0.11877646 0.045212723 -0.004488899 0.05635228 0.40475497 0.15292044 0.15314347 0.34711462 0.07104972 0.19468728 0.51437914 -0.6163131 -0.77220476 0.11364402 0.19917712
monte carlo -0.18093196 0.20542182 0.24445476 0.32417098 0.34073338 0.122984506 0.11239674 -0.08175569 -0.3143896 0.21620364 -0.039626516 -0.020698996 -0.6022267 -0.30855933 0.29622135 0.0508205 0.44998384 -0.20063445 0.020452838 -0.33042884 -0.025138885 0.1067332 -0.60694736 -0.14058149 -0.16026993 -0.3222085 -0.08431789 -0.10445419 0.009339219 0.09302717 0.35169432 -0.35166556 -0.3540399 -0.33961394 -0.15970813 -0.10085199 0.3807467 -0.33203098 0.0792533 -0.4758033 0.030199533 0.3287267 0.015474594 0.64201343 -0.042493924 0.07940192 -0.5360952 0.46977028 0.19965193 0.010940259 0.11923866 -0.19563672 0.42470202 0.14639066 0.15568544 -0.32684124 0.23654713 -0.029915513 -0.12473812 -0.3113592 0.007914113 0.021820005 -0.4024843 -0.11829706 0.10994949 0.19275533 0.16726755 -0.14985274 -0.04955754 0.088364914 -0.47887528 0.059865694 0.11208359 0.2738716 0.27055153 0.040403195 -0.3895651 -0.0565734 -0.3107099 -0.124677755 -0.12253292 0.051411506 -0.14694412 0.17208137 -0.4728692 0.2966029 -0.0964618 0.28515276 0.28048414 0.39847767 0.4628208 -0.15555708 -0.33845654 -0.25493738 0.19339107 -0.098210506 -0.13969962 -0.20583531 0.032814283 0.44565147
vue 0.12176699 0.58094066 0.25163198 0.20392254 0.24467888 -0.23929524 0.42064014 0.479268 -0.15846355 -0.22827767 -0.19659956 -0.05020198 -0.042047054 0.03213807 -0.014660756 -0.0034303367 -0.32467407 0.116387405 -0.12323593 -0.029135423 0.045530956 0.12387763 -0.54453117 0.16895506 -0.21032178 -0.0905939 0.17212856 -0.13676868 0.022311764 -0.40781045 -0.2060412 -0.38857815 -0.008813615 -0.3177821 -0.4205911 0.6192236 -0.0601689 -0.1108832 -0.40819702 0.22667229 -0.34705064 0.097676106 0.019457096 0.320819 0.025365243 0.6377837 -0.13446951 0.37681967 0.30449933 0.15613592 0.17488272 -0.12080575 0.42975354 0.15999253 -0.10809738 -0.0047990778 0.19474241 0.22378917 0.32724681 -0.17800644 0.025108758 0.27983353 -0.37963194 -0.5590435 0.57480985 -0.33102402 0.54447967 0.14081664 -0.6496892 0.23610108 -0.19325212 0.09398059 -0.1497221 0.44545397 0.0227458 -0.030813562 -0.23492762 -0.1543045 -0.44286963 -0.14938672 0.46652034 -0.037466947 0.38069704 0.32022014 0.21686456 -0.46095213 -0.5068159 0.033756506 0.054377906 0.31692606 0.3798459 -0.032872047 -0.30545613 -0.17405763 -0.20961757 -0.030205805 -0.5769877 -0.10665431 0.04974761 0.11759193
expressjs -0.069126405 0.55497354 -0.035401184 0.27311012 0.36923727 0.20612608 0.48472553 0.04191914 -0.2942746 -0.11528798 0.08812537 -0.4902228 -0.2973778 -0.099991396 -0.278864 -0.018770209 0.3539212 0.1178038 -0.037803765 -0.37118724 -0.29369673 0.44070318 -0.27665064 -0.14399472 -0.18383397 0.12147243 0.120456055 0.30678323 -0.32318142 0.46346447 0.11844046 0.07858309 -0.44793034 -0.2773019 -0.23863117 0.06628797 0.6163178 -0.24003652 0.0431743 0.12822558 0.27521262 -0.27408636 0.004185288 -0.07837098 0.102327965 0.6020346 0.09300547 0.35228294 0.060947012 0.060394093 0.3561903 0.06786624 0.1876958 -0.1890083 -0.05858724 0.043884978 0.22921762 0.15983355 0.3253419 0.0791112 0.6517112 0.1982489 -0.30946282 0.4333704 0.38947102 0.37339106 -0.27742985 0.4900921 -0.247889 -0.01160234 -0.092337675 0.32025307 -0.26256377 0.20651738 0.1457524 -0.12970226 -0.6690194 0.0392752 -0.88684744 -0.027292447 -0.1488275 -0.0006759888 0.67721134 0.08860729 0.090281956 -0.2335378 -0.27820244 0.21616997 0.2924603 -0.215323 0.3947732 0.043357417 0.41794077 -0.287522 -0.3934733 0.09670343 -0.38373655 -0.12714599 -0.23316814 0.50134313
swift -0.25137252 0.48166436 0.22793986 -0.15185966 0.26862967 -0.7037889 0.42551947 0.27139226 -0.4163713 0.04738104 -0.014978962 0.06259622 -0.22106186 0.34250343 -0.33105972 -0.18127617 0.39063498 0.10108835 0.26033694 -0.011797285 -0.39239755 -0.13810554 -0.9450115 0.18107215 -0.6042286 -0.14611761 0.18657997 -0.07454989 0.25744 0.102765396 0.13830318 -0.30699426 0.037805088 -0.4248679 -0.49822712 -0.19112271 0.15841515 0.08480004 0.18569551 -0.67985576 -0.17196028 -0.06815118 -0.13413577 0.16058294 -0.26319152 0.13809022 0.0064558815 0.26086828 0.62779886 0.067784235 0.19029325 -0.6220748 0.36413345 -0.18395256 -0.21626303 -0.020794202 0.3450255 0.5904357 -0.21491766 0.27821222 -0.31336805 0.33655098 -0.0067505687 -0.35473648 0.77074283 0.32774702 0.47030342 0.13637434 -0.107737765 0.23038255 -0.05804872 0.31519544 0.2063174 0.019314555 0.15845867 -0.14738576 -0.41369823 0.07363964 0.17838205 -0.39829543 0.34071624 -0.116030656 0.33983287 0.5820471 -0.039294478 -0.44610438 0.10763834 0.19036463 0.15202813 0.2830578 0.20617367 0.5859884 0.10360991 0.27228746 -0.111982696 0.17585982 0.02924168 -0.4313468 -0.004796971 -0.017444134
html 0.1351541 0.6064078 0.25563356 0.21210723 0.24976678 -0.25536472 0.44427398 0.48947623 -0.16415626 -0.22474074 -0.20038982 -0.05908681 -0.040410385 0.015036609 -0.019484408 -0.0072111567 -0.33134517 0.115393475 -0.142377 -0.03213869 0.054926578 0.12657587 -0.57043207 0.17746107 -0.22308277 -0.0901298 0.17823096 -0.148461 0.025878333 -0.4168892 -0.21661566 -0.41860294 -0.028065793 -0.33479297 -0.42961276 0.6372884 -0.054694973 -0.11858328 -0.42667362 0.235102 -0.36605766 0.105161235 0.014137756 0.34076664 0.031353965 0.66808623 -0.15382046 0.3907137 0.3221388 0.16405977 0.18170017 -0.12312124 0.4493598 0.17181093 -0.11183253 -0.0007006077 0.21368004 0.22859387 0.34009126 -0.2062253 0.026141731 0.29514349 -0.40151253 -0.57922375 0.59035057 -0.33317032 0.56384844 0.14250197 -0.66972893 0.22995053 -0.20993243 0.094657235 -0.1531319 0.46936616 0.02655704 -0.023806555 -0.24901532 -0.16498707 -0.46485707 -0.1531187 0.47460982 -0.042352658 0.3990861 0.3365922 0.22670215 -0.48110667 -0.53408045 0.04615948 0.057158414 0.33049032 0.3967462 -0.037368424 -0.32789528 -0.19769865 -0.21128374 -0.029636074 -0.59202206 -0.11982854 0.05111122 0.117846735
ios -0.23068514 0.44001374 0.21390513 -0.15857387 0.24553694 -0.64712703 0.37282482 0.23697115 -0.3814743 0.04217398 -0.017071998 0.069196664 -0.20051827 0.30763754 -0.3219191 -0.17033342 0.39242986 0.09860976 0.24300978 0.00074737996 -0.37597832 -0.1516227 -0.85510826 0.16062535 -0.551807 -0.13367201 0.19675907 -0.07273985 0.24728994 0.11258535 0.12058284 -0.290715 0.040028397 -0.38627222 -0.44540006 -0.19954984 0.15986753 0.07946157 0.20635378 -0.6337542 -0.15870774 -0.07634936 -0.13175045 0.14623761 -0.2530487 0.11571992 0.014491077 0.22248466 0.5702243 0.053046532 0.17453854 -0.58276546 0.33479616 -0.19411065 -0.20756416 -0.00024092816 0.30781415 0.5562966 -0.2050104 0.2606222 -0.28420576 0.30854708 0.027552128 -0.32224798 0.7166279 0.30934957 0.4316011 0.13303797 -0.08423923 0.19383183 -0.044664495 0.28802022 0.19755541 0.010473243 0.13261916 -0.14867766 -0.4003215 0.079115495 0.16984919 -0.37264848 0.3190828 -0.118359946 0.32598975 0.55341417 -0.033592913 -0.40864253 0.11201578 0.17747879 0.15553759 0.26110527 0.18148208 0.560287 0.12017466 0.2755979 -0.095089905 0.19478904 0.044455867 -0.41034698 0.0052770986 -0.01850702
finance -0.19602661 0.1687162 0.22669502 0.26908505 0.38521928 0.08534379 0.12762985 -0.09624886 -0.3055524 0.24969701 -0.036515452 0.0008244153 -0.6008828 -0.309095 0.28803495 0.030315567 0.48186103 -0.19393027 0.0052517406 -0.30190107 -0.052162394 0.066375874 -0.6386861 -0.104418255 -0.17670918 -0.33185375 -0.09130088 -0.13316938 0.022168303 0.08133746 0.37850642 -0.38517243 -0.3557983 -0.33114296 -0.17908128 -0.121433206 0.3484801 -0.2977746 0.07294216 -0.51018506 0.0029262647 0.33129415 0.018557444 0.65562594 -0.08453062 0.03410646 -0.5775595 0.46669704 0.21095257 0.038645 0.07322969 -0.23486952 0.451627 0.13936031 0.13225003 -0.3374349 0.22549345 -0.023646886 -0.15723863 -0.3193518 0.00534511 0.01727654 -0.38092282 -0.16556151 0.10763015 0.19721141 0.18155389 -0.18499754 -0.023188671 0.09056194 -0.4789846 0.049813136 0.1325063 0.24984173 0.23946333 -0.0029482453 -0.3699348 -0.009269932 -0.23491997 -0.10177662 -0.07780258 0.03267815 -0.18843651 0.20321098 -0.49609005 0.28857392 -0.076730445 0.33483857 0.245192 0.4199004 0.49478194 -0.13864705 -0.35266516 -0.21555994 0.23261175 -0.077072285 -0.12459908 -0.20650366 0.04545014 0.3896063
nextjs 0.13429394 0.6546587 0.257606 0.23728466 0.27636158 -0.22459328 0.48186684 0.5170811 -0.17988959 -0.25435153 -0.20352818 -0.101391405 -0.04538493 0.027297532 -0.040859357 -0.019934291 -0.35620204 0.13664867 -0.1528331 -0.04363691 0.040191937 0.16332369 -0.5725315 0.18010114 -0.22683561 -0.072463095 0.19057411 -0.12935323 -0.008260733 -0.43042573 -0.23001748 -0.4079247 -0.046730857 -0.3377581 -0.46237937 0.69686157 -0.036018364 -0.12938148 -0.4629122 0.29301205 -0.3537182 0.080493525 0.020580577 0.33606654 0.042350944 0.7464011 -0.13839304 0.41857177 0.32661036 0.18531764 0.20077966 -0.11067491 0.45229265 0.16280083 -0.11255389 -0.009921926 0.21735272 0.24060008 0.39182517 -0.19987161 0.07553012 0.32094625 -0.4451286 -0.58275145 0.6243501 -0.3632173 0.55836123 0.18010704 -0.7159187 0.25452223 -0.19709842 0.106847234 -0.18086112 0.5004851 0.025347738 -0.047127478 -0.27946326 -0.15947941 -0.53794 -0.14228888 0.49249253 -0.04581344 0.4401075 0.3313601 0.26383623 -0.5271576 -0.5878304 0.042114504 0.067798115 0.30205983 0.431994 -0.06732989 -0.31562364 -0.22792614 -0.264029 -0.041649092 -0.65725565 -0.09819207 0.033493124 0.14626423
django -0.057980664 0.51401407 -0.04121939 0.2668695 0.37719947 0.20895475 0.44677964 0.029718166 -0.2720466 -0.120022476 0.088955544 -0.4569193 -0.27613825 -0.106405996 -0.27293867 -0.019500857 0.31500593 0.12176879 -0.02096468 -0.3457573 -0.2501627 0.42793933 -0.24486329 -0.14355955 -0.16713308 0.13706543 0.11837145 0.2872533 -0.29819524 0.43668762 0.088379145 0.08552164 -0.4305753 -0.2508923 -0.21783638 0.064925395 0.5614906 -0.24123643 0.053411912 0.12609716 0.27942237 -0.26731303 0.001480377 -0.080561616 0.10063582 0.59132624 0.0985288 0.34721458 0.045673143 0.0472386 0.3340846 0.07933476 0.16065934 -0.18868572 -0.07310414 0.048970748 0.21439354 0.12941624 0.3095597 0.07311181 0.6205359 0.17483792 -0.29952106 0.4228503 0.36129525 0.34124035 -0.2533898 0.46896738 -0.25020352 -0.014520868 -0.07408422 0.29936475 -0.24290368 0.22047359 0.13586329 -0.11883108 -0.6326973 0.022206273 -0.86429834 -0.030300291 -0.13070577 -0.017119452 0.6453192 0.075719155 0.0842187 -0.23044257 -0.26320308 0.20575225 0.27478528 -0.20726328 0.34621775 0.021839336 0.41158363 -0.26704198 -0.36116597 0.10064427 -0.37947005 -0.13690694 -0.21689922 0.47747487
nginx -0.060214136 0.5279099 -0.027753595 0.2638021 0.344343 0.19447826 0.44794744 0.048550744 -0.27430233 -0.121059015 0.079666786 -0.45447963 -0.2677038 -0.09553887 -0.26770303 -0.017640257 0.32302314 0.11648655 -0.022553138 -0.3507305 -0.26186293 0.41725913 -0.25266963 -0.14115429 -0.17050645 0.12439849 0.11664844 0.28436568 -0.28663495 0.439283 0.09852561 0.08637721 -0.4114774 -0.25646535 -0.2200878 0.061587814 0.56886667 -0.23535912 0.051770665 0.112547174 0.2614146 -0.26067314 -0.005644968 -0.07510677 0.09820614 0.578442 0.10986779 0.3297709 0.064616755 0.046823546 0.3447504 0.06322137 0.16906443 -0.17551294 -0.06315486 0.055242658 0.22294721 0.14834937 0.30272707 0.07510134 0.606518 0.17882408 -0.285741 0.41452 0.37333488 0.3458886 -0.24747542 0.470818 -0.2505678 -0.012825727 -0.08284052 0.30480453 -0.24623773 0.2049901 0.13789718 -0.10958388 -0.6293366 0.018517666 -0.84262794 -0.039715115 -0.14101504 -0.0031472924 0.6392812 0.086342834 0.08451628 -0.22035132 -0.24857341 0.1928316 0.27299264 -0.18753721 0.35123315 0.041775055 0.39871612 -0.27324665 -0.3650432 0.097998224 -0.36736724 -0.13630332 -0.2162512 0.47391316
tailwind 0.10972007 0.6294041 0.26429147 0.21542881 0.24818985 -0.25154176 0.4449257 0.51056397 -0.1834353 -0.22514617 -0.20637664 -0.058324512 -0.057925876 0.039039567 -0.026164414 -0.021013908 -0.34103665 0.12218438 -0.13026811 -0.030983295 0.034109596 0.12841344 -0.5903694 0.17823379 -0.23340863 -0.09727827 0.18372525 -0.14345905 0.023093404 -0.4288719 -0.20505463 -0.41850108 -0.02035574 -0.34770846 -0.452738 0.65010446 -0.04353984 -0.118524246 -0.43671557 0.22489691 -0.3609798 0.105365306 0.014622575 0.35795066 0.020052651 0.6876784 -0.1464166 0.3983141 0.33965698 0.1762023 0.19461244 -0.14493993 0.45235133 0.16173486 -0.10561678 -0.02270012 0.2144292 0.24852951 0.33170027 -0.18650316 0.00990944 0.3101887 -0.41937935 -0.60335356 0.6220017 -0.35155374 0.58545274 0.14600398 -0.6828833 0.25401026 -0.20539454 0.104037054 -0.14573549 0.4719474 0.032782998 -0.034313805 -0.25790617 -0.16055262 -0.46605778 -0.15337877 0.4904734 -0.036974948 0.3950544 0.34015173 0.23698148 -0.49890715 -0.5406279 0.03376146 0.071594015 0.3349097 0.40462473 -0.045214128 -0.3292443 -0.19585632 -0.22493842 -0.040760074 -0.6145909 -0.110790364 0.04953163 0.13279694
flask -0.07631553 0.51976275 -0.032203965 0.24027562 0.36270437 0.17621313 0.43540663 0.041802835 -0.2724147 -0.12125743 0.08682193 -0.45007563 -0.26967862 -0.06408513 -0.2703176 -0.034397785 0.31531274 0.12803984 -0.0072325035 -0.31705803 -0.27273 0.40598816 -0.2686557 -0.12866087 -0.18412732 0.13899346 0.11623812 0.28349409 -0.2981994 0.4224676 0.09515927 0.0825959 -0.40947732 -0.24851654 -0.23284575 0.04581014 0.5585682 -0.21290559 0.039643563 0.09442242 0.26471224 -0.26343527 -0.0038352732 -0.07854844 0.08745528 0.5756415 0.10615864 0.3321813 0.0727059 0.053921454 0.32897437 0.036488913 0.16462679 -0.20125073 -0.06422941 0.036778383 0.21451142 0.14882883 0.29326215 0.08611866 0.5797769 0.18521449 -0.2857211 0.39944085 0.37659302 0.33334363 -0.22880897 0.45457804 -0.22124103 0.00020311351 -0.06437256 0.30092886 -0.21618973 0.19869956 0.13322705 -0.12812586 -0.6082431 0.0427975 -0.7971876 -0.034385554 -0.1211562 -0.012598508 0.61773056 0.08146629 0.08834593 -0.24275614 -0.25049642 0.20416294 0.26628405 -0.2061413 0.34166643 0.033957373 0.40046826 -0.24991924 -0.36008584 0.090209104 -0.34843913 -0.1247702 -0.21647589 0.45209458
redis -0.061031297 0.5384833 -0.023581069 0.25643528 0.33421305 0.19080836 0.4509051 0.056569498 -0.28576776 -0.1264076 0.07840481 -0.4567623 -0.26911914 -0.06791764 -0.26467606 -0.03500816 0.3182374 0.122483805 -0.033167187 -0.34122896 -0.2749063 0.42111695 -0.27260017 -0.13020621 -0.17633088 0.13512622 0.106426835 0.28420955 -0.2930923 0.42110997 0.098872386 0.08821848 -0.4168735 -0.2506353 -0.23763971 0.081310965 0.56637394 -0.22121659 0.023039358 0.122234575 0.25795594 -0.26547372 -0.0061279736 -0.08301425 0.09837498 0.5918948 0.107779615 0.32832047 0.074258834 0.04896111 0.3381175 0.058899824 0.16724215 -0.189743 -0.06174501 0.04110473 0.22337785 0.158284 0.30351117 0.09489805 0.6017078 0.19482538 -0.29603 0.40164068 0.39579162 0.329087 -0.2403216 0.4730736 -0.2366325 -0.0048555783 -0.06776664 0.3050409 -0.24131139 0.2017137 0.13633227 -0.118971236 -0.6273632 0.05017936 -0.8247474 -0.03325658 -0.12746668 -0.0064151785 0.6359175 0.07957121 0.09663573 -0.2390852 -0.26320085 0.19611669 0.2646769 -0.21170211 0.3588314 0.037815426 0.39625356 -0.27258173 -0.39594206 0.092095345 -0.36417466 -0.11908171 -0.21914287 0.47086543
mysql -0.059318 0.5116102 -0.03773353 0.2579529 0.34539443 0.20312504 0.44639465 0.036980383 -0.2591166 -0.10729049 0.077400684 -0.47466272 -0.26574746 -0.13487715 -0.28060552 -0.003135643 0.34783742 0.109697 -0.023395069 -0.35510758 -0.2713904 0.40652436 -0.22685678 -0.14919694 -0.13993141 0.09882553 0.12748927 0.30386597 -0.28241712 0.46894675 0.111554585 0.0857064 -0.4239782 -0.2612995 -0.20736225 0.048694886 0.58519804 -0.24264066 0.08484602 0.11604555 0.2603106 -0.2631532 0.005010129 -0.08491516 0.093378395 0.5349116 0.09630423 0.32334647 0.038559213 0.06107464 0.33930367 0.06624623 0.17778414 -0.1734518 -0.06702396 0.04592413 0.20560534 0.16218072 0.29406694 0.052681778 0.62854964 0.17492692 -0.26344267 0.42654076 0.337577 0.38538733 -0.27336004 0.460525 -0.23187011 -0.01668119 -0.09183622 0.30467856 -0.24943194 0.19145364 0.13322799 -0.107211284 -0.6439253 0.008738442 -0.85314065 -0.032227296 -0.15490524 0.010096301 0.63763744 0.09004974 0.07129306 -0.20168816 -0.23753409 0.1914051 0.3015275 -0.17937402 0.35606584 0.048373487 0.4074026 -0.26395708 -0.34818804 0.11770062 -0.3620394 -0.14016502 -0.22103594 0.46807665
9 0.0035138647 0.17053667 0.07225758 0.058557406 0.12316282 -0.09778892 0.17724858 0.0799337 -0.11090015 -0.0142806545 -0.0204058 -0.03301522 -0.07104283 -0.042612676 -0.046612523 -0.0008881109 0.09642145 0.0065239538 0.003791917 -0.102391906 -0.034447484 0.045319118 -0.2358118 0.016711786 -0.116106525 -0.063783504 0.065333575 -0.021507416 0.04275804 0.03278993 0.021071099 -0.1258989 -0.07395409 -0.1491497 -0.12825519 0.06668832 0.06850614 -0.060153775 0.014994504 -0.06914467 -0.069455236 -0.0011203308 -0.0059087323 0.08021535 -0.010592127 0.12343819 -0.06995258 0.13594383 0.08768706 0.018853731 0.058907747 -0.06099063 0.17700356 0.02623583 -0.03491375 0.03167604 0.09281042 0.09153848 0.049603008 -0.0397863 0.07204859 0.06716411 -0.057614993 -0.072001904 0.17993331 0.077692665 0.0966544 0.08153422 -0.14687532 0.026822194 -0.10695178 0.08150791 -0.054500196 0.1114552 0.037401922 0.00086714816 -0.16185309 -0.03383692 -0.15911895 -0.09417193 0.08328122 -0.017675055 0.17172545 0.15912911 -0.02699941 -0.080066144 -0.062251426 0.07633236 0.06610507 0.12122932 0.1489948 0.10114504 -0.0070116147 -0.025449708 -0.0372126 0.050338056 -0.09589641 -0.12915547 0.00082640164 0.09285851
8 0.01769952 0.1560077 0.055297747 0.052679986 0.116912626 -0.09411896 0.17708261 0.073739514 -0.094448335 -0.016478937 -0.01669465 -0.039827637 -0.057378437 -0.040721938 -0.051996924 0.013920146 0.09390775 0.008447078 -0.0027461606 -0.08738847 -0.03672985 0.049702875 -0.21927758 0.014117566 -0.1121362 -0.0565611 0.07734196 -0.010047143 0.033425175 0.037756063 0.014526056 -0.11705211 -0.0625883 -0.13303906 -0.12055309 0.057269473 0.072912574 -0.04911475 0.012812877 -0.047657117 -0.05804547 -0.013027817 -0.0013215626 0.06306705 -0.022388913 0.11434181 -0.06608561 0.13454938 0.088466264 0.012852784 0.062399026 -0.0566711 0.16826074 0.027707703 -0.049456038 0.035554305 0.092375964 0.094255656 0.045842864 -0.051499553 0.07003905 0.059111923 -0.057617076 -0.062323723 0.17833984 0.08432593 0.07746258 0.0801851 -0.13837986 0.02945185 -0.09171062 0.07504232 -0.046919208 0.10405694 0.037513863 -0.011511718 -0.15086396 -0.03155359 -0.15652493 -0.08093889 0.07102582 -0.019193564 0.17648889 0.14804283 -0.024254095 -0.07873146 -0.05740575 0.075159624 0.072380215 0.11113842 0.13374516 0.11683528 -0.006014145 -0.02715107 -0.032061342 0.060689855 -0.09711745 -0.1335001 -0.00052446127 0.08506116
7 0.01241556 0.16878971 0.074744746 0.050347686 0.11884856 -0.099271886 0.18806997 0.07451452 -0.11242767 -0.009845422 -0.033918604 -0.032602686 -0.075797886 -0.038887106 -0.041090623 -0.0050904043 0.09383402 0.009920912 -0.011573223 -0.09407648 -0.026548017 0.049977355 -0.24459071 0.016212817 -0.11685657 -0.06493629 0.07484596 -0.016746696 0.03173892 0.032383375 0.020508219 -0.13738102 -0.0674485 -0.14179204 -0.1412288 0.066606835 0.07823011 -0.05846146 0.01258073 -0.06109675 -0.07127148 -0.009576457 -0.0016933032 0.08997804 -0.012908058 0.12885378 -0.069967866 0.15263629 0.08664335 0.019570025 0.06724958 -0.06347781 0.18338427 0.019131716 -0.04361218 0.038407106 0.103734426 0.08731386 0.04828215 -0.052902665 0.0738486 0.07234164 -0.065453984 -0.07707524 0.18999219 0.0830946 0.10056731 0.08715839 -0.16287374 0.029341195 -0.1076788 0.07955438 -0.049848102 0.109841794 0.04770077 0.0010317662 -0.17433046 -0.023285326 -0.17046964 -0.09000173 0.07858411 -0.027315326 0.1776735 0.1592468 -0.02820739 -0.07280706 -0.075072855 0.07133214 0.08039062 0.123475865 0.16072422 0.11099528 -0.011074888 -0.039220817 -0.033134896 0.04681739 -0.1071112 -0.13765171 -0.0005427904 0.09840806
6 0.014714977 0.17120308 0.0745333 0.052679636 0.12249924 -0.10664925 0.1895589 0.08446425 -0.11096003 -0.0137619395 -0.03164544 -0.022425823 -0.06676894 -0.036390677 -0.050034054 0.0061431834 0.10204683 0.01010884 -0.011412021 -0.09573066 -0.041104652 0.045428075 -0.25084904 0.019676141 -0.12228347 -0.06443164 0.07678263 -0.015005434 0.033408917 0.047320787 0.010212003 -0.13097042 -0.069567196 -0.1523017 -0.13971895 0.059954844 0.07720742 -0.056988932 0.01814799 -0.058937117 -0.080450535 -0.01042325 0.0073266285 0.08034102 -0.015583301 0.12577054 -0.0710427 0.14517903 0.08903398 0.024570823 0.07199832 -0.05962693 0.17967866 0.019437153 -0.05282065 0.031201223 0.100494996 0.0985212 0.042742062 -0.039768122 0.0751943 0.062171288 -0.061246805 -0.07163202 0.19808353 0.09628185 0.094585106 0.087968186 -0.15521705 0.02294296 -0.101937264 0.082900256 -0.047898855 0.104135625 0.037892215 -0.007214443 -0.16833365 -0.020770319 -0.16484144 -0.09305793 0.085214734 -0.010163408 0.1894247 0.16905594 -0.014899518 -0.077420145 -0.06653739 0.08199627 0.07018916 0.12711023 0.16277048 0.11915069 -0.0068601156 -0.032128654 -0.035572503 0.06572363 -0.09696211 -0.13837105 -0.003947387 0.100650124
5 0.010344505 0.16583863 0.07380105 0.05510833 0.12473039 -0.096886545 0.17891403 0.07967195 -0.107982874 -0.0058871736 -0.028870352 -0.022633007 -0.07942316 -0.034348622 -0.035259895 -0.0025131558 0.0946862 0.00743434 0.0026257336 -0.09932045 -0.03997195 0.05032958 -0.24753574 0.0112461 -0.11772285 -0.068704724 0.062621765 -0.021312054 0.035347022 0.038908213 0.014312001 -0.13843933 -0.06560155 -0.14073464 -0.12876791 0.063211106 0.078150555 -0.05264165 0.00801324 -0.062471196 -0.0721741 -0.007933358 0.004469755 0.08689443 -0.02145678 0.11806976 -0.073899396 0.1488674 0.0881058 0.01754699 0.071229726 -0.05019907 0.17841336 0.027719809 -0.036648806 0.024070103 0.10409507 0.09299606 0.050300922 -0.045384012 0.065848656 0.0686268 -0.06335084 -0.07690946 0.18438092 0.08596385 0.090486445 0.07475099 -0.151837 0.025889263 -0.09408718 0.08448744 -0.054701447 0.11038817 0.049605276 -0.011257549 -0.16178116 -0.02853965 -0.16636182 -0.08743281 0.080622666 -0.015101401 0.18003358 0.1503803 -0.02671725 -0.0687346 -0.07159846 0.081486896 0.07955104 0.122771166 0.15582782 0.10938225 -0.01915212 -0.0345005 -0.033445224 0.052294172 -0.0922738 -0.1356022 -0.002829868 0.09372762
4 0.021090204 0.16648704 0.068286344 0.046384923 0.11447647 -0.098083936 0.18079029 0.07596263 -0.09674296 -0.01644331 -0.032801397 -0.027200967 -0.06765841 -0.044222023 -0.042552847 0.011025894 0.09855044 0.0056459806 -0.003829396 -0.104692765 -0.02940897 0.04540699 -0.2265111 0.011523357 -0.11838563 -0.06936814 0.08084826 -0.010458364 0.0326083 0.047059298 0.027663019 -0.14084853 -0.06440422 -0.14236245 -0.1356318 0.05870264 0.078185186 -0.056152634 0.015000435 -0.06255127 -0.08135804 -0.0077930037 -0.00540921 0.075553596 -0.012422276 0.11314553 -0.06939903 0.1366305 0.08421078 0.013462978 0.066411175 -0.045949716 0.18531913 0.028272461 -0.044310987 0.029215036 0.10156328 0.08873381 0.05929295 -0.052750304 0.083427384 0.06822987 -0.061878055 -0.063882805 0.17459925 0.09875589 0.080610104 0.07532759 -0.14686576 0.020593889 -0.11406685 0.07132461 -0.06204875 0.10819054 0.031086333 -0.003997669 -0.16819477 -0.034950156 -0.16864647 -0.08412359 0.086317934 -0.0115053095 0.18859802 0.16744095 -0.017266346 -0.06889787 -0.06446028 0.08199061 0.0663397 0.116957024 0.16425903 0.11385945 -0.003820047 -0.028904758 -0.028638765 0.05712971 -0.09568213 -0.13922334 0.00514266 0.08739596
3 0.008811925 0.15771571 0.06536829 0.05147331 0.11235084 -0.08354536 0.17719021 0.08001897 -0.09785868 -0.023050737 -0.024797857 -0.02107248 -0.06421704 -0.037264902 -0.04916046 0.0044315765 0.0981158 0.009813514 -0.007422046 -0.09196625 -0.02299286 0.041509185 -0.23289077 0.009499136 -0.103568986 -0.06442693 0.06662083 -0.015503157 0.025738955 0.040071137 0.014890811 -0.12210019 -0.06674139 -0.14268152 -0.13031924 0.064413145 0.078373894 -0.05897154 0.012400085 -0.05803664 -0.07292095 -0.007392028 0.005858247 0.06837115 -0.011171902 0.111928694 -0.060340412 0.14054711 0.09554854 0.012176953 0.060583178 -0.047246058 0.17401224 0.02389929 -0.04116605 0.027111586 0.09839799 0.078132175 0.047452852 -0.045983214 0.078483 0.067452446 -0.04901288 -0.07090739 0.17384394 0.08668499 0.082007006 0.07498802 -0.13952795 0.025502054 -0.10161403 0.07320428 -0.054293625 0.09814196 0.037341464 -0.009614984 -0.15918392 -0.01985125 -0.15789509 -0.08513102 0.07241166 -0.01648836 0.1679241 0.15867257 -0.017012477 -0.06214796 -0.059425473 0.06941868 0.07059008 0.12103422 0.1583041 0.109621294 -0.008103042 -0.030040897 -0.029758321 0.059025142 -0.08934485 -0.13049135 -0.0045056585 0.086785406
2 0.006791972 0.14493403 0.064237475 0.039798267 0.09908965 -0.09388247 0.15234983 0.06905274 -0.098861925 -0.00746068 -0.023898754 -0.019434527 -0.06154848 -0.029892283 -0.036768466 -0.0046775118 0.095149346 0.0066161305 0.00022365543 -0.078317605 -0.03186162 0.041891564 -0.21357661 0.015264728 -0.10821865 -0.05942198 0.061751418 -0.015533289 0.03251567 0.03411505 0.020397764 -0.11434574 -0.052486613 -0.13066494 -0.12568188 0.055105988 0.07497935 -0.045937326 0.013930545 -0.056708306 -0.061716154 -0.00070798123 -0.0033281185 0.0612316 -0.017025469 0.10145423 -0.05872105 0.12231875 0.08330354 0.014141864 0.05908758 -0.05676108 0.1623879 0.013467587 -0.046953633 0.022785466 0.08953814 0.07959193 0.037661444 -0.030028977 0.06813018 0.066318735 -0.05529884 -0.06447799 0.16766444 0.08070367 0.08375307 0.0669115 -0.1232035 0.02470982 -0.09576349 0.07180925 -0.042947218 0.08830571 0.032681257 -0.004580324 -0.14763173 -0.014846425 -0.14195713 -0.078075655 0.07510369 -0.020257475 0.14502314 0.14363162 -0.028916433 -0.06625572 -0.057569914 0.060576282 0.067747705 0.10041241 0.13780114 0.1114957 -0.0072698584 -0.021141116 -0.031615943 0.0489635 -0.07835258 -0.11278677 -0.007474876 0.08163309
